=== Run information ===

Scheme:       weka.classifiers.meta.FilteredClassifier -F "weka.filters.supervised.attribute.Discretize -R first-last -precision 6" -S 1 -W weka.classifiers.trees.J48 -- -C 0.25 -M 2
Relation:     train_processed
Instances:    7628
Attributes:   15
              WordCount
              SentimentGI
              NegativityGI
              PositivityGI
              SentimentHE
              NegativityHE
              PositivityHE
              SentimentLM
              NegativityLM
              PositivityLM
              RatioUncertaintyLM
              SentimentQDAP
              NegativityQDAP
              PositivityQDAP
              Section
Test mode:    10-fold cross-validation

=== Classifier model (full training set) ===

FilteredClassifier using weka.classifiers.trees.J48 -C 0.25 -M 2 on data filtered through weka.filters.supervised.attribute.Discretize -R first-last -precision 6

Filtered Header
@relation train_processed-weka.filters.supervised.attribute.Discretize-Rfirst-last-precision6

@attribute WordCount {'\'(-inf-10.5]\'','\'(10.5-20.5]\'','\'(20.5-34.5]\'','\'(34.5-41.5]\'','\'(41.5-67.5]\'','\'(67.5-140.5]\'','\'(140.5-inf)\''}
@attribute SentimentGI {'\'(-inf--0.060424]\'','\'(-0.060424--0.001873]\'','\'(-0.001873-0.006957]\'','\'(0.006957-0.142435]\'','\'(0.142435-0.219848]\'','\'(0.219848-inf)\''}
@attribute NegativityGI {'\'(-inf-0.003572]\'','\'(0.003572-0.058292]\'','\'(0.058292-0.119859]\'','\'(0.119859-0.264429]\'','\'(0.264429-inf)\''}
@attribute PositivityGI {'\'(-inf-0.006757]\'','\'(0.006757-0.177149]\'','\'(0.177149-0.255111]\'','\'(0.255111-inf)\''}
@attribute SentimentHE {'\'(-inf--0.048081]\'','\'(-0.048081--0.016327]\'','\'(-0.016327--0.007326]\'','\'(-0.007326-0.003105]\'','\'(0.003105-0.017076]\'','\'(0.017076-0.035556]\'','\'(0.035556-0.075236]\'','\'(0.075236-inf)\''}
@attribute NegativityHE {'\'(-inf-0.001971]\'','\'(0.001971-0.007272]\'','\'(0.007272-0.016065]\'','\'(0.016065-0.028778]\'','\'(0.028778-0.047848]\'','\'(0.047848-inf)\''}
@attribute PositivityHE {'\'(-inf-0.005747]\'','\'(0.005747-0.016195]\'','\'(0.016195-0.036951]\'','\'(0.036951-0.058292]\'','\'(0.058292-inf)\''}
@attribute SentimentLM {'\'(-inf--0.058227]\'','\'(-0.058227--0.019705]\'','\'(-0.019705--0.001216]\'','\'(-0.001216-0.071009]\'','\'(0.071009-inf)\''}
@attribute NegativityLM {'\'(-inf-0.007813]\'','\'(0.007813-0.038936]\'','\'(0.038936-0.071218]\'','\'(0.071218-inf)\''}
@attribute PositivityLM {'\'(-inf-0.002304]\'','\'(0.002304-0.023202]\'','\'(0.023202-0.058652]\'','\'(0.058652-inf)\''}
@attribute RatioUncertaintyLM {'\'(-inf-0.003559]\'','\'(0.003559-0.010076]\'','\'(0.010076-0.024348]\'','\'(0.024348-0.068574]\'','\'(0.068574-inf)\''}
@attribute SentimentQDAP {'\'(-inf--0.04525]\'','\'(-0.04525--0.005439]\'','\'(-0.005439-0.002242]\'','\'(0.002242-0.024243]\'','\'(0.024243-0.071248]\'','\'(0.071248-0.181385]\'','\'(0.181385-inf)\''}
@attribute NegativityQDAP {'\'(-inf-0.006297]\'','\'(0.006297-0.0226]\'','\'(0.0226-0.039579]\'','\'(0.039579-0.099618]\'','\'(0.099618-0.2207]\'','\'(0.2207-inf)\''}
@attribute PositivityQDAP {'\'(-inf-0.005155]\'','\'(0.005155-0.068598]\'','\'(0.068598-0.180882]\'','\'(0.180882-0.22173]\'','\'(0.22173-inf)\''}
@attribute Section {SECTION3,SECTION0,SECTION1,SECTION2}

@data


Classifier Model
J48 pruned tree
------------------

NegativityHE = '(-inf-0.001971]'
|   WordCount = '(-inf-10.5]'
|   |   SentimentQDAP = '(-inf--0.04525]': SECTION2 (16.0/2.0)
|   |   SentimentQDAP = '(-0.04525--0.005439]': SECTION2 (0.0)
|   |   SentimentQDAP = '(-0.005439-0.002242]'
|   |   |   SentimentGI = '(-inf--0.060424]': SECTION2 (9.0/2.0)
|   |   |   SentimentGI = '(-0.060424--0.001873]': SECTION3 (0.0)
|   |   |   SentimentGI = '(-0.001873-0.006957]'
|   |   |   |   RatioUncertaintyLM = '(-inf-0.003559]'
|   |   |   |   |   NegativityQDAP = '(-inf-0.006297]': SECTION1 (40.0/24.0)
|   |   |   |   |   NegativityQDAP = '(0.006297-0.0226]': SECTION1 (0.0)
|   |   |   |   |   NegativityQDAP = '(0.0226-0.039579]': SECTION1 (0.0)
|   |   |   |   |   NegativityQDAP = '(0.039579-0.099618]': SECTION1 (0.0)
|   |   |   |   |   NegativityQDAP = '(0.099618-0.2207]': SECTION2 (3.0/1.0)
|   |   |   |   |   NegativityQDAP = '(0.2207-inf)': SECTION1 (0.0)
|   |   |   |   RatioUncertaintyLM = '(0.003559-0.010076]': SECTION1 (0.0)
|   |   |   |   RatioUncertaintyLM = '(0.010076-0.024348]': SECTION1 (0.0)
|   |   |   |   RatioUncertaintyLM = '(0.024348-0.068574]': SECTION1 (0.0)
|   |   |   |   RatioUncertaintyLM = '(0.068574-inf)': SECTION2 (3.0)
|   |   |   SentimentGI = '(0.006957-0.142435]': SECTION2 (8.0/3.0)
|   |   |   SentimentGI = '(0.142435-0.219848]': SECTION3 (20.0/1.0)
|   |   |   SentimentGI = '(0.219848-inf)': SECTION1 (1.0)
|   |   SentimentQDAP = '(0.002242-0.024243]': SECTION2 (0.0)
|   |   SentimentQDAP = '(0.024243-0.071248]': SECTION2 (0.0)
|   |   SentimentQDAP = '(0.071248-0.181385]': SECTION2 (36.0/9.0)
|   |   SentimentQDAP = '(0.181385-inf)': SECTION2 (26.0/5.0)
|   WordCount = '(10.5-20.5]': SECTION2 (779.0/241.0)
|   WordCount = '(20.5-34.5]'
|   |   NegativityQDAP = '(-inf-0.006297]'
|   |   |   PositivityQDAP = '(-inf-0.005155]'
|   |   |   |   SentimentGI = '(-inf--0.060424]': SECTION3 (1.0)
|   |   |   |   SentimentGI = '(-0.060424--0.001873]': SECTION1 (8.0/3.0)
|   |   |   |   SentimentGI = '(-0.001873-0.006957]': SECTION2 (13.0/5.0)
|   |   |   |   SentimentGI = '(0.006957-0.142435]': SECTION1 (26.0/12.0)
|   |   |   |   SentimentGI = '(0.142435-0.219848]': SECTION0 (3.0)
|   |   |   |   SentimentGI = '(0.219848-inf)': SECTION1 (0.0)
|   |   |   PositivityQDAP = '(0.005155-0.068598]'
|   |   |   |   PositivityHE = '(-inf-0.005747]'
|   |   |   |   |   SentimentLM = '(-inf--0.058227]': SECTION2 (4.0/2.0)
|   |   |   |   |   SentimentLM = '(-0.058227--0.019705]': SECTION1 (20.0/12.0)
|   |   |   |   |   SentimentLM = '(-0.019705--0.001216]': SECTION1 (0.0)
|   |   |   |   |   SentimentLM = '(-0.001216-0.071009]'
|   |   |   |   |   |   NegativityLM = '(-inf-0.007813]'
|   |   |   |   |   |   |   PositivityLM = '(-inf-0.002304]': SECTION1 (48.0/19.0)
|   |   |   |   |   |   |   PositivityLM = '(0.002304-0.023202]': SECTION1 (0.0)
|   |   |   |   |   |   |   PositivityLM = '(0.023202-0.058652]': SECTION2 (8.0/3.0)
|   |   |   |   |   |   |   PositivityLM = '(0.058652-inf)': SECTION1 (0.0)
|   |   |   |   |   |   NegativityLM = '(0.007813-0.038936]': SECTION2 (2.0)
|   |   |   |   |   |   NegativityLM = '(0.038936-0.071218]': SECTION1 (2.0)
|   |   |   |   |   |   NegativityLM = '(0.071218-inf)': SECTION1 (0.0)
|   |   |   |   |   SentimentLM = '(0.071009-inf)': SECTION1 (0.0)
|   |   |   |   PositivityHE = '(0.005747-0.016195]': SECTION1 (0.0)
|   |   |   |   PositivityHE = '(0.016195-0.036951]': SECTION3 (8.0/5.0)
|   |   |   |   PositivityHE = '(0.036951-0.058292]'
|   |   |   |   |   NegativityGI = '(-inf-0.003572]': SECTION2 (2.0)
|   |   |   |   |   NegativityGI = '(0.003572-0.058292]': SECTION3 (2.0/1.0)
|   |   |   |   |   NegativityGI = '(0.058292-0.119859]': SECTION2 (0.0)
|   |   |   |   |   NegativityGI = '(0.119859-0.264429]': SECTION2 (0.0)
|   |   |   |   |   NegativityGI = '(0.264429-inf)': SECTION2 (0.0)
|   |   |   |   PositivityHE = '(0.058292-inf)': SECTION3 (5.0)
|   |   |   PositivityQDAP = '(0.068598-0.180882]'
|   |   |   |   SentimentGI = '(-inf--0.060424]': SECTION2 (1.0)
|   |   |   |   SentimentGI = '(-0.060424--0.001873]': SECTION2 (6.0/3.0)
|   |   |   |   SentimentGI = '(-0.001873-0.006957]': SECTION1 (10.0/2.0)
|   |   |   |   SentimentGI = '(0.006957-0.142435]'
|   |   |   |   |   SentimentLM = '(-inf--0.058227]': SECTION2 (9.0/4.0)
|   |   |   |   |   SentimentLM = '(-0.058227--0.019705]'
|   |   |   |   |   |   NegativityLM = '(-inf-0.007813]': SECTION1 (0.0)
|   |   |   |   |   |   NegativityLM = '(0.007813-0.038936]': SECTION2 (11.0/5.0)
|   |   |   |   |   |   NegativityLM = '(0.038936-0.071218]': SECTION1 (15.0/7.0)
|   |   |   |   |   |   NegativityLM = '(0.071218-inf)': SECTION2 (2.0)
|   |   |   |   |   SentimentLM = '(-0.019705--0.001216]': SECTION2 (0.0)
|   |   |   |   |   SentimentLM = '(-0.001216-0.071009]'
|   |   |   |   |   |   RatioUncertaintyLM = '(-inf-0.003559]'
|   |   |   |   |   |   |   PositivityLM = '(-inf-0.002304]'
|   |   |   |   |   |   |   |   SentimentHE = '(-inf--0.048081]': SECTION2 (0.0)
|   |   |   |   |   |   |   |   SentimentHE = '(-0.048081--0.016327]': SECTION2 (0.0)
|   |   |   |   |   |   |   |   SentimentHE = '(-0.016327--0.007326]': SECTION2 (0.0)
|   |   |   |   |   |   |   |   SentimentHE = '(-0.007326-0.003105]': SECTION2 (37.0/19.0)
|   |   |   |   |   |   |   |   SentimentHE = '(0.003105-0.017076]': SECTION2 (0.0)
|   |   |   |   |   |   |   |   SentimentHE = '(0.017076-0.035556]': SECTION1 (1.0)
|   |   |   |   |   |   |   |   SentimentHE = '(0.035556-0.075236]': SECTION1 (3.0)
|   |   |   |   |   |   |   |   SentimentHE = '(0.075236-inf)': SECTION2 (0.0)
|   |   |   |   |   |   |   PositivityLM = '(0.002304-0.023202]': SECTION2 (0.0)
|   |   |   |   |   |   |   PositivityLM = '(0.023202-0.058652]'
|   |   |   |   |   |   |   |   PositivityGI = '(-inf-0.006757]': SECTION1 (0.0)
|   |   |   |   |   |   |   |   PositivityGI = '(0.006757-0.177149]'
|   |   |   |   |   |   |   |   |   NegativityGI = '(-inf-0.003572]': SECTION2 (9.0/3.0)
|   |   |   |   |   |   |   |   |   NegativityGI = '(0.003572-0.058292]': SECTION1 (9.0/2.0)
|   |   |   |   |   |   |   |   |   NegativityGI = '(0.058292-0.119859]': SECTION2 (5.0/1.0)
|   |   |   |   |   |   |   |   |   NegativityGI = '(0.119859-0.264429]': SECTION2 (0.0)
|   |   |   |   |   |   |   |   |   NegativityGI = '(0.264429-inf)': SECTION2 (0.0)
|   |   |   |   |   |   |   |   PositivityGI = '(0.177149-0.255111]': SECTION1 (4.0/1.0)
|   |   |   |   |   |   |   |   PositivityGI = '(0.255111-inf)': SECTION2 (1.0)
|   |   |   |   |   |   |   PositivityLM = '(0.058652-inf)'
|   |   |   |   |   |   |   |   NegativityGI = '(-inf-0.003572]': SECTION3 (3.0/1.0)
|   |   |   |   |   |   |   |   NegativityGI = '(0.003572-0.058292]': SECTION0 (2.0/1.0)
|   |   |   |   |   |   |   |   NegativityGI = '(0.058292-0.119859]': SECTION3 (0.0)
|   |   |   |   |   |   |   |   NegativityGI = '(0.119859-0.264429]': SECTION3 (0.0)
|   |   |   |   |   |   |   |   NegativityGI = '(0.264429-inf)': SECTION3 (0.0)
|   |   |   |   |   |   RatioUncertaintyLM = '(0.003559-0.010076]': SECTION2 (0.0)
|   |   |   |   |   |   RatioUncertaintyLM = '(0.010076-0.024348]': SECTION2 (0.0)
|   |   |   |   |   |   RatioUncertaintyLM = '(0.024348-0.068574]': SECTION2 (11.0/3.0)
|   |   |   |   |   |   RatioUncertaintyLM = '(0.068574-inf)': SECTION0 (3.0/2.0)
|   |   |   |   |   SentimentLM = '(0.071009-inf)'
|   |   |   |   |   |   NegativityGI = '(-inf-0.003572]': SECTION1 (2.0)
|   |   |   |   |   |   NegativityGI = '(0.003572-0.058292]': SECTION1 (4.0/1.0)
|   |   |   |   |   |   NegativityGI = '(0.058292-0.119859]': SECTION2 (7.0/2.0)
|   |   |   |   |   |   NegativityGI = '(0.119859-0.264429]': SECTION1 (0.0)
|   |   |   |   |   |   NegativityGI = '(0.264429-inf)': SECTION1 (0.0)
|   |   |   |   SentimentGI = '(0.142435-0.219848]': SECTION1 (78.0/38.0)
|   |   |   |   SentimentGI = '(0.219848-inf)': SECTION1 (40.0/15.0)
|   |   |   PositivityQDAP = '(0.180882-0.22173]'
|   |   |   |   NegativityLM = '(-inf-0.007813]'
|   |   |   |   |   SentimentGI = '(-inf--0.060424]': SECTION1 (0.0)
|   |   |   |   |   SentimentGI = '(-0.060424--0.001873]': SECTION1 (0.0)
|   |   |   |   |   SentimentGI = '(-0.001873-0.006957]': SECTION1 (0.0)
|   |   |   |   |   SentimentGI = '(0.006957-0.142435]': SECTION3 (2.0/1.0)
|   |   |   |   |   SentimentGI = '(0.142435-0.219848]'
|   |   |   |   |   |   SentimentLM = '(-inf--0.058227]': SECTION2 (0.0)
|   |   |   |   |   |   SentimentLM = '(-0.058227--0.019705]': SECTION2 (0.0)
|   |   |   |   |   |   SentimentLM = '(-0.019705--0.001216]': SECTION2 (0.0)
|   |   |   |   |   |   SentimentLM = '(-0.001216-0.071009]': SECTION2 (6.0/1.0)
|   |   |   |   |   |   SentimentLM = '(0.071009-inf)': SECTION1 (2.0)
|   |   |   |   |   SentimentGI = '(0.219848-inf)': SECTION1 (2.0)
|   |   |   |   NegativityLM = '(0.007813-0.038936]': SECTION2 (4.0/1.0)
|   |   |   |   NegativityLM = '(0.038936-0.071218]': SECTION1 (8.0/2.0)
|   |   |   |   NegativityLM = '(0.071218-inf)': SECTION1 (2.0)
|   |   |   PositivityQDAP = '(0.22173-inf)'
|   |   |   |   SentimentHE = '(-inf--0.048081]': SECTION2 (0.0)
|   |   |   |   SentimentHE = '(-0.048081--0.016327]': SECTION2 (0.0)
|   |   |   |   SentimentHE = '(-0.016327--0.007326]': SECTION2 (0.0)
|   |   |   |   SentimentHE = '(-0.007326-0.003105]'
|   |   |   |   |   SentimentGI = '(-inf--0.060424]': SECTION1 (0.0)
|   |   |   |   |   SentimentGI = '(-0.060424--0.001873]': SECTION1 (0.0)
|   |   |   |   |   SentimentGI = '(-0.001873-0.006957]': SECTION3 (2.0/1.0)
|   |   |   |   |   SentimentGI = '(0.006957-0.142435]': SECTION2 (6.0/1.0)
|   |   |   |   |   SentimentGI = '(0.142435-0.219848]': SECTION1 (4.0/1.0)
|   |   |   |   |   SentimentGI = '(0.219848-inf)': SECTION1 (20.0/8.0)
|   |   |   |   SentimentHE = '(0.003105-0.017076]': SECTION2 (0.0)
|   |   |   |   SentimentHE = '(0.017076-0.035556]': SECTION1 (2.0/1.0)
|   |   |   |   SentimentHE = '(0.035556-0.075236]': SECTION2 (7.0)
|   |   |   |   SentimentHE = '(0.075236-inf)': SECTION2 (3.0)
|   |   NegativityQDAP = '(0.006297-0.0226]': SECTION2 (0.0)
|   |   NegativityQDAP = '(0.0226-0.039579]'
|   |   |   SentimentHE = '(-inf--0.048081]': SECTION2 (0.0)
|   |   |   SentimentHE = '(-0.048081--0.016327]': SECTION2 (0.0)
|   |   |   SentimentHE = '(-0.016327--0.007326]': SECTION2 (0.0)
|   |   |   SentimentHE = '(-0.007326-0.003105]'
|   |   |   |   SentimentGI = '(-inf--0.060424]': SECTION2 (3.0/1.0)
|   |   |   |   SentimentGI = '(-0.060424--0.001873]': SECTION2 (9.0/2.0)
|   |   |   |   SentimentGI = '(-0.001873-0.006957]': SECTION2 (20.0/6.0)
|   |   |   |   SentimentGI = '(0.006957-0.142435]': SECTION2 (75.0/37.0)
|   |   |   |   SentimentGI = '(0.142435-0.219848]'
|   |   |   |   |   NegativityGI = '(-inf-0.003572]'
|   |   |   |   |   |   NegativityLM = '(-inf-0.007813]': SECTION3 (2.0)
|   |   |   |   |   |   NegativityLM = '(0.007813-0.038936]': SECTION2 (2.0)
|   |   |   |   |   |   NegativityLM = '(0.038936-0.071218]': SECTION2 (0.0)
|   |   |   |   |   |   NegativityLM = '(0.071218-inf)': SECTION2 (1.0)
|   |   |   |   |   NegativityGI = '(0.003572-0.058292]': SECTION1 (10.0/3.0)
|   |   |   |   |   NegativityGI = '(0.058292-0.119859]'
|   |   |   |   |   |   SentimentQDAP = '(-inf--0.04525]': SECTION2 (0.0)
|   |   |   |   |   |   SentimentQDAP = '(-0.04525--0.005439]': SECTION2 (0.0)
|   |   |   |   |   |   SentimentQDAP = '(-0.005439-0.002242]': SECTION2 (0.0)
|   |   |   |   |   |   SentimentQDAP = '(0.002242-0.024243]': SECTION2 (0.0)
|   |   |   |   |   |   SentimentQDAP = '(0.024243-0.071248]': SECTION2 (1.0)
|   |   |   |   |   |   SentimentQDAP = '(0.071248-0.181385]'
|   |   |   |   |   |   |   PositivityLM = '(-inf-0.002304]': SECTION1 (6.0/2.0)
|   |   |   |   |   |   |   PositivityLM = '(0.002304-0.023202]': SECTION1 (0.0)
|   |   |   |   |   |   |   PositivityLM = '(0.023202-0.058652]': SECTION2 (3.0/1.0)
|   |   |   |   |   |   |   PositivityLM = '(0.058652-inf)': SECTION1 (0.0)
|   |   |   |   |   |   SentimentQDAP = '(0.181385-inf)': SECTION2 (3.0/1.0)
|   |   |   |   |   NegativityGI = '(0.119859-0.264429]': SECTION1 (2.0)
|   |   |   |   |   NegativityGI = '(0.264429-inf)': SECTION1 (0.0)
|   |   |   |   SentimentGI = '(0.219848-inf)': SECTION3 (5.0/2.0)
|   |   |   SentimentHE = '(0.003105-0.017076]': SECTION2 (0.0)
|   |   |   SentimentHE = '(0.017076-0.035556]'
|   |   |   |   RatioUncertaintyLM = '(-inf-0.003559]'
|   |   |   |   |   SentimentGI = '(-inf--0.060424]': SECTION2 (0.0)
|   |   |   |   |   SentimentGI = '(-0.060424--0.001873]': SECTION2 (0.0)
|   |   |   |   |   SentimentGI = '(-0.001873-0.006957]': SECTION3 (1.0)
|   |   |   |   |   SentimentGI = '(0.006957-0.142435]': SECTION2 (15.0/8.0)
|   |   |   |   |   SentimentGI = '(0.142435-0.219848]': SECTION1 (4.0/1.0)
|   |   |   |   |   SentimentGI = '(0.219848-inf)': SECTION2 (4.0/1.0)
|   |   |   |   RatioUncertaintyLM = '(0.003559-0.010076]': SECTION2 (0.0)
|   |   |   |   RatioUncertaintyLM = '(0.010076-0.024348]': SECTION2 (0.0)
|   |   |   |   RatioUncertaintyLM = '(0.024348-0.068574]': SECTION0 (8.0/3.0)
|   |   |   |   RatioUncertaintyLM = '(0.068574-inf)': SECTION2 (0.0)
|   |   |   SentimentHE = '(0.035556-0.075236]': SECTION2 (30.0/9.0)
|   |   |   SentimentHE = '(0.075236-inf)': SECTION3 (3.0)
|   |   NegativityQDAP = '(0.039579-0.099618]': SECTION2 (322.0/141.0)
|   |   NegativityQDAP = '(0.099618-0.2207]': SECTION2 (126.0/55.0)
|   |   NegativityQDAP = '(0.2207-inf)': SECTION2 (9.0/1.0)
|   WordCount = '(34.5-41.5]'
|   |   PositivityHE = '(-inf-0.005747]'
|   |   |   SentimentGI = '(-inf--0.060424]': SECTION2 (9.0/3.0)
|   |   |   SentimentGI = '(-0.060424--0.001873]'
|   |   |   |   NegativityGI = '(-inf-0.003572]': SECTION2 (0.0)
|   |   |   |   NegativityGI = '(0.003572-0.058292]': SECTION1 (5.0/1.0)
|   |   |   |   NegativityGI = '(0.058292-0.119859]'
|   |   |   |   |   PositivityQDAP = '(-inf-0.005155]': SECTION0 (0.0)
|   |   |   |   |   PositivityQDAP = '(0.005155-0.068598]': SECTION1 (3.0/1.0)
|   |   |   |   |   PositivityQDAP = '(0.068598-0.180882]': SECTION0 (2.0/1.0)
|   |   |   |   |   PositivityQDAP = '(0.180882-0.22173]': SECTION0 (0.0)
|   |   |   |   |   PositivityQDAP = '(0.22173-inf)': SECTION0 (0.0)
|   |   |   |   NegativityGI = '(0.119859-0.264429]': SECTION2 (11.0/3.0)
|   |   |   |   NegativityGI = '(0.264429-inf)': SECTION2 (0.0)
|   |   |   SentimentGI = '(-0.001873-0.006957]'
|   |   |   |   SentimentLM = '(-inf--0.058227]'
|   |   |   |   |   NegativityGI = '(-inf-0.003572]': SECTION1 (0.0)
|   |   |   |   |   NegativityGI = '(0.003572-0.058292]': SECTION1 (2.0)
|   |   |   |   |   NegativityGI = '(0.058292-0.119859]': SECTION1 (0.0)
|   |   |   |   |   NegativityGI = '(0.119859-0.264429]': SECTION3 (2.0/1.0)
|   |   |   |   |   NegativityGI = '(0.264429-inf)': SECTION1 (0.0)
|   |   |   |   SentimentLM = '(-0.058227--0.019705]': SECTION2 (7.0/2.0)
|   |   |   |   SentimentLM = '(-0.019705--0.001216]': SECTION1 (0.0)
|   |   |   |   SentimentLM = '(-0.001216-0.071009]': SECTION1 (12.0/2.0)
|   |   |   |   SentimentLM = '(0.071009-inf)': SECTION1 (0.0)
|   |   |   SentimentGI = '(0.006957-0.142435]'
|   |   |   |   PositivityQDAP = '(-inf-0.005155]': SECTION0 (5.0/3.0)
|   |   |   |   PositivityQDAP = '(0.005155-0.068598]': SECTION1 (68.0/35.0)
|   |   |   |   PositivityQDAP = '(0.068598-0.180882]'
|   |   |   |   |   PositivityLM = '(-inf-0.002304]'
|   |   |   |   |   |   NegativityLM = '(-inf-0.007813]'
|   |   |   |   |   |   |   NegativityQDAP = '(-inf-0.006297]': SECTION1 (16.0/4.0)
|   |   |   |   |   |   |   NegativityQDAP = '(0.006297-0.0226]': SECTION1 (0.0)
|   |   |   |   |   |   |   NegativityQDAP = '(0.0226-0.039579]': SECTION1 (3.0/1.0)
|   |   |   |   |   |   |   NegativityQDAP = '(0.039579-0.099618]'
|   |   |   |   |   |   |   |   RatioUncertaintyLM = '(-inf-0.003559]': SECTION2 (7.0/2.0)
|   |   |   |   |   |   |   |   RatioUncertaintyLM = '(0.003559-0.010076]': SECTION2 (0.0)
|   |   |   |   |   |   |   |   RatioUncertaintyLM = '(0.010076-0.024348]': SECTION2 (0.0)
|   |   |   |   |   |   |   |   RatioUncertaintyLM = '(0.024348-0.068574]': SECTION1 (3.0)
|   |   |   |   |   |   |   |   RatioUncertaintyLM = '(0.068574-inf)': SECTION2 (0.0)
|   |   |   |   |   |   |   NegativityQDAP = '(0.099618-0.2207]': SECTION1 (0.0)
|   |   |   |   |   |   |   NegativityQDAP = '(0.2207-inf)': SECTION1 (0.0)
|   |   |   |   |   |   NegativityLM = '(0.007813-0.038936]': SECTION2 (20.0/7.0)
|   |   |   |   |   |   NegativityLM = '(0.038936-0.071218]'
|   |   |   |   |   |   |   PositivityGI = '(-inf-0.006757]': SECTION1 (0.0)
|   |   |   |   |   |   |   PositivityGI = '(0.006757-0.177149]': SECTION1 (14.0/5.0)
|   |   |   |   |   |   |   PositivityGI = '(0.177149-0.255111]': SECTION3 (2.0/1.0)
|   |   |   |   |   |   |   PositivityGI = '(0.255111-inf)': SECTION1 (0.0)
|   |   |   |   |   |   NegativityLM = '(0.071218-inf)'
|   |   |   |   |   |   |   PositivityGI = '(-inf-0.006757]': SECTION1 (0.0)
|   |   |   |   |   |   |   PositivityGI = '(0.006757-0.177149]'
|   |   |   |   |   |   |   |   RatioUncertaintyLM = '(-inf-0.003559]': SECTION1 (7.0/3.0)
|   |   |   |   |   |   |   |   RatioUncertaintyLM = '(0.003559-0.010076]': SECTION0 (0.0)
|   |   |   |   |   |   |   |   RatioUncertaintyLM = '(0.010076-0.024348]': SECTION0 (0.0)
|   |   |   |   |   |   |   |   RatioUncertaintyLM = '(0.024348-0.068574]': SECTION0 (4.0/1.0)
|   |   |   |   |   |   |   |   RatioUncertaintyLM = '(0.068574-inf)': SECTION3 (1.0)
|   |   |   |   |   |   |   PositivityGI = '(0.177149-0.255111]': SECTION1 (6.0/1.0)
|   |   |   |   |   |   |   PositivityGI = '(0.255111-inf)': SECTION3 (1.0)
|   |   |   |   |   PositivityLM = '(0.002304-0.023202]': SECTION1 (0.0)
|   |   |   |   |   PositivityLM = '(0.023202-0.058652]'
|   |   |   |   |   |   NegativityQDAP = '(-inf-0.006297]': SECTION1 (9.0/2.0)
|   |   |   |   |   |   NegativityQDAP = '(0.006297-0.0226]': SECTION2 (0.0)
|   |   |   |   |   |   NegativityQDAP = '(0.0226-0.039579]': SECTION2 (8.0/2.0)
|   |   |   |   |   |   NegativityQDAP = '(0.039579-0.099618]'
|   |   |   |   |   |   |   RatioUncertaintyLM = '(-inf-0.003559]': SECTION0 (7.0/3.0)
|   |   |   |   |   |   |   RatioUncertaintyLM = '(0.003559-0.010076]': SECTION2 (0.0)
|   |   |   |   |   |   |   RatioUncertaintyLM = '(0.010076-0.024348]': SECTION2 (0.0)
|   |   |   |   |   |   |   RatioUncertaintyLM = '(0.024348-0.068574]': SECTION2 (4.0)
|   |   |   |   |   |   |   RatioUncertaintyLM = '(0.068574-inf)': SECTION2 (1.0)
|   |   |   |   |   |   NegativityQDAP = '(0.099618-0.2207]': SECTION2 (4.0/1.0)
|   |   |   |   |   |   NegativityQDAP = '(0.2207-inf)': SECTION2 (0.0)
|   |   |   |   |   PositivityLM = '(0.058652-inf)': SECTION1 (2.0)
|   |   |   |   PositivityQDAP = '(0.180882-0.22173]': SECTION2 (11.0/6.0)
|   |   |   |   PositivityQDAP = '(0.22173-inf)': SECTION1 (2.0)
|   |   |   SentimentGI = '(0.142435-0.219848]': SECTION1 (53.0/16.0)
|   |   |   SentimentGI = '(0.219848-inf)'
|   |   |   |   PositivityQDAP = '(-inf-0.005155]': SECTION1 (0.0)
|   |   |   |   PositivityQDAP = '(0.005155-0.068598]'
|   |   |   |   |   NegativityGI = '(-inf-0.003572]': SECTION1 (2.0)
|   |   |   |   |   NegativityGI = '(0.003572-0.058292]': SECTION3 (0.0)
|   |   |   |   |   NegativityGI = '(0.058292-0.119859]': SECTION3 (2.0)
|   |   |   |   |   NegativityGI = '(0.119859-0.264429]': SECTION3 (0.0)
|   |   |   |   |   NegativityGI = '(0.264429-inf)': SECTION3 (0.0)
|   |   |   |   PositivityQDAP = '(0.068598-0.180882]'
|   |   |   |   |   SentimentQDAP = '(-inf--0.04525]': SECTION1 (0.0)
|   |   |   |   |   SentimentQDAP = '(-0.04525--0.005439]': SECTION1 (0.0)
|   |   |   |   |   SentimentQDAP = '(-0.005439-0.002242]': SECTION1 (0.0)
|   |   |   |   |   SentimentQDAP = '(0.002242-0.024243]': SECTION1 (0.0)
|   |   |   |   |   SentimentQDAP = '(0.024243-0.071248]': SECTION3 (2.0/1.0)
|   |   |   |   |   SentimentQDAP = '(0.071248-0.181385]': SECTION1 (9.0/2.0)
|   |   |   |   |   SentimentQDAP = '(0.181385-inf)': SECTION1 (0.0)
|   |   |   |   PositivityQDAP = '(0.180882-0.22173]': SECTION1 (2.0/1.0)
|   |   |   |   PositivityQDAP = '(0.22173-inf)': SECTION2 (3.0)
|   |   PositivityHE = '(0.005747-0.016195]': SECTION1 (0.0)
|   |   PositivityHE = '(0.016195-0.036951]'
|   |   |   SentimentLM = '(-inf--0.058227]': SECTION1 (13.0/6.0)
|   |   |   SentimentLM = '(-0.058227--0.019705]'
|   |   |   |   NegativityGI = '(-inf-0.003572]': SECTION0 (2.0/1.0)
|   |   |   |   NegativityGI = '(0.003572-0.058292]': SECTION3 (14.0/7.0)
|   |   |   |   NegativityGI = '(0.058292-0.119859]'
|   |   |   |   |   NegativityQDAP = '(-inf-0.006297]': SECTION1 (1.0)
|   |   |   |   |   NegativityQDAP = '(0.006297-0.0226]': SECTION2 (0.0)
|   |   |   |   |   NegativityQDAP = '(0.0226-0.039579]': SECTION3 (2.0/1.0)
|   |   |   |   |   NegativityQDAP = '(0.039579-0.099618]': SECTION2 (6.0)
|   |   |   |   |   NegativityQDAP = '(0.099618-0.2207]': SECTION2 (0.0)
|   |   |   |   |   NegativityQDAP = '(0.2207-inf)': SECTION2 (0.0)
|   |   |   |   NegativityGI = '(0.119859-0.264429]': SECTION2 (7.0/1.0)
|   |   |   |   NegativityGI = '(0.264429-inf)': SECTION2 (0.0)
|   |   |   SentimentLM = '(-0.019705--0.001216]': SECTION2 (0.0)
|   |   |   SentimentLM = '(-0.001216-0.071009]'
|   |   |   |   NegativityQDAP = '(-inf-0.006297]': SECTION1 (31.0/17.0)
|   |   |   |   NegativityQDAP = '(0.006297-0.0226]': SECTION2 (0.0)
|   |   |   |   NegativityQDAP = '(0.0226-0.039579]': SECTION1 (26.0/12.0)
|   |   |   |   NegativityQDAP = '(0.039579-0.099618]': SECTION2 (18.0/7.0)
|   |   |   |   NegativityQDAP = '(0.099618-0.2207]': SECTION2 (5.0)
|   |   |   |   NegativityQDAP = '(0.2207-inf)': SECTION2 (0.0)
|   |   |   SentimentLM = '(0.071009-inf)': SECTION2 (5.0/2.0)
|   |   PositivityHE = '(0.036951-0.058292]'
|   |   |   SentimentGI = '(-inf--0.060424]': SECTION0 (1.0)
|   |   |   SentimentGI = '(-0.060424--0.001873]': SECTION2 (1.0)
|   |   |   SentimentGI = '(-0.001873-0.006957]': SECTION2 (2.0)
|   |   |   SentimentGI = '(0.006957-0.142435]'
|   |   |   |   NegativityQDAP = '(-inf-0.006297]'
|   |   |   |   |   RatioUncertaintyLM = '(-inf-0.003559]': SECTION1 (3.0)
|   |   |   |   |   RatioUncertaintyLM = '(0.003559-0.010076]': SECTION1 (0.0)
|   |   |   |   |   RatioUncertaintyLM = '(0.010076-0.024348]': SECTION1 (0.0)
|   |   |   |   |   RatioUncertaintyLM = '(0.024348-0.068574]': SECTION0 (4.0/2.0)
|   |   |   |   |   RatioUncertaintyLM = '(0.068574-inf)': SECTION1 (0.0)
|   |   |   |   NegativityQDAP = '(0.006297-0.0226]': SECTION2 (0.0)
|   |   |   |   NegativityQDAP = '(0.0226-0.039579]'
|   |   |   |   |   SentimentQDAP = '(-inf--0.04525]': SECTION3 (0.0)
|   |   |   |   |   SentimentQDAP = '(-0.04525--0.005439]': SECTION3 (0.0)
|   |   |   |   |   SentimentQDAP = '(-0.005439-0.002242]': SECTION3 (0.0)
|   |   |   |   |   SentimentQDAP = '(0.002242-0.024243]': SECTION3 (0.0)
|   |   |   |   |   SentimentQDAP = '(0.024243-0.071248]': SECTION0 (3.0/1.0)
|   |   |   |   |   SentimentQDAP = '(0.071248-0.181385]': SECTION3 (3.0/1.0)
|   |   |   |   |   SentimentQDAP = '(0.181385-inf)': SECTION3 (0.0)
|   |   |   |   NegativityQDAP = '(0.039579-0.099618]'
|   |   |   |   |   SentimentQDAP = '(-inf--0.04525]': SECTION2 (0.0)
|   |   |   |   |   SentimentQDAP = '(-0.04525--0.005439]': SECTION2 (0.0)
|   |   |   |   |   SentimentQDAP = '(-0.005439-0.002242]': SECTION2 (1.0)
|   |   |   |   |   SentimentQDAP = '(0.002242-0.024243]': SECTION2 (0.0)
|   |   |   |   |   SentimentQDAP = '(0.024243-0.071248]'
|   |   |   |   |   |   PositivityGI = '(-inf-0.006757]': SECTION3 (0.0)
|   |   |   |   |   |   PositivityGI = '(0.006757-0.177149]': SECTION2 (2.0)
|   |   |   |   |   |   PositivityGI = '(0.177149-0.255111]': SECTION3 (2.0)
|   |   |   |   |   |   PositivityGI = '(0.255111-inf)': SECTION3 (0.0)
|   |   |   |   |   SentimentQDAP = '(0.071248-0.181385]': SECTION0 (2.0)
|   |   |   |   |   SentimentQDAP = '(0.181385-inf)': SECTION2 (0.0)
|   |   |   |   NegativityQDAP = '(0.099618-0.2207]': SECTION2 (6.0/1.0)
|   |   |   |   NegativityQDAP = '(0.2207-inf)': SECTION2 (0.0)
|   |   |   SentimentGI = '(0.142435-0.219848]'
|   |   |   |   SentimentQDAP = '(-inf--0.04525]': SECTION1 (0.0)
|   |   |   |   SentimentQDAP = '(-0.04525--0.005439]': SECTION1 (0.0)
|   |   |   |   SentimentQDAP = '(-0.005439-0.002242]': SECTION1 (0.0)
|   |   |   |   SentimentQDAP = '(0.002242-0.024243]': SECTION1 (0.0)
|   |   |   |   SentimentQDAP = '(0.024243-0.071248]': SECTION1 (0.0)
|   |   |   |   SentimentQDAP = '(0.071248-0.181385]': SECTION1 (4.0/1.0)
|   |   |   |   SentimentQDAP = '(0.181385-inf)': SECTION3 (2.0/1.0)
|   |   |   SentimentGI = '(0.219848-inf)': SECTION1 (3.0/1.0)
|   |   PositivityHE = '(0.058292-inf)'
|   |   |   PositivityQDAP = '(-inf-0.005155]': SECTION3 (0.0)
|   |   |   PositivityQDAP = '(0.005155-0.068598]': SECTION3 (2.0)
|   |   |   PositivityQDAP = '(0.068598-0.180882]': SECTION1 (13.0/6.0)
|   |   |   PositivityQDAP = '(0.180882-0.22173]': SECTION3 (0.0)
|   |   |   PositivityQDAP = '(0.22173-inf)': SECTION2 (3.0/1.0)
|   WordCount = '(41.5-67.5]'
|   |   PositivityHE = '(-inf-0.005747]'
|   |   |   NegativityQDAP = '(-inf-0.006297]': SECTION1 (214.0/79.0)
|   |   |   NegativityQDAP = '(0.006297-0.0226]': SECTION1 (181.0/70.0)
|   |   |   NegativityQDAP = '(0.0226-0.039579]': SECTION1 (106.0/42.0)
|   |   |   NegativityQDAP = '(0.039579-0.099618]'
|   |   |   |   PositivityQDAP = '(-inf-0.005155]': SECTION3 (3.0/1.0)
|   |   |   |   PositivityQDAP = '(0.005155-0.068598]'
|   |   |   |   |   PositivityGI = '(-inf-0.006757]': SECTION1 (0.0)
|   |   |   |   |   PositivityGI = '(0.006757-0.177149]'
|   |   |   |   |   |   NegativityGI = '(-inf-0.003572]': SECTION2 (1.0)
|   |   |   |   |   |   NegativityGI = '(0.003572-0.058292]': SECTION1 (14.0/8.0)
|   |   |   |   |   |   NegativityGI = '(0.058292-0.119859]'
|   |   |   |   |   |   |   NegativityLM = '(-inf-0.007813]'
|   |   |   |   |   |   |   |   SentimentGI = '(-inf--0.060424]': SECTION0 (0.0)
|   |   |   |   |   |   |   |   SentimentGI = '(-0.060424--0.001873]': SECTION0 (3.0/1.0)
|   |   |   |   |   |   |   |   SentimentGI = '(-0.001873-0.006957]': SECTION1 (1.0)
|   |   |   |   |   |   |   |   SentimentGI = '(0.006957-0.142435]': SECTION2 (3.0/1.0)
|   |   |   |   |   |   |   |   SentimentGI = '(0.142435-0.219848]': SECTION0 (0.0)
|   |   |   |   |   |   |   |   SentimentGI = '(0.219848-inf)': SECTION0 (0.0)
|   |   |   |   |   |   |   NegativityLM = '(0.007813-0.038936]': SECTION1 (10.0/2.0)
|   |   |   |   |   |   |   NegativityLM = '(0.038936-0.071218]'
|   |   |   |   |   |   |   |   SentimentQDAP = '(-inf--0.04525]': SECTION1 (2.0)
|   |   |   |   |   |   |   |   SentimentQDAP = '(-0.04525--0.005439]': SECTION0 (8.0/3.0)
|   |   |   |   |   |   |   |   SentimentQDAP = '(-0.005439-0.002242]': SECTION0 (3.0/2.0)
|   |   |   |   |   |   |   |   SentimentQDAP = '(0.002242-0.024243]': SECTION3 (1.0)
|   |   |   |   |   |   |   |   SentimentQDAP = '(0.024243-0.071248]': SECTION0 (0.0)
|   |   |   |   |   |   |   |   SentimentQDAP = '(0.071248-0.181385]': SECTION0 (0.0)
|   |   |   |   |   |   |   |   SentimentQDAP = '(0.181385-inf)': SECTION0 (0.0)
|   |   |   |   |   |   |   NegativityLM = '(0.071218-inf)': SECTION0 (10.0/2.0)
|   |   |   |   |   |   NegativityGI = '(0.119859-0.264429]': SECTION2 (7.0/1.0)
|   |   |   |   |   |   NegativityGI = '(0.264429-inf)': SECTION0 (0.0)
|   |   |   |   |   PositivityGI = '(0.177149-0.255111]': SECTION1 (6.0)
|   |   |   |   |   PositivityGI = '(0.255111-inf)': SECTION3 (1.0)
|   |   |   |   PositivityQDAP = '(0.068598-0.180882]'
|   |   |   |   |   RatioUncertaintyLM = '(-inf-0.003559]'
|   |   |   |   |   |   NegativityLM = '(-inf-0.007813]': SECTION2 (7.0/2.0)
|   |   |   |   |   |   NegativityLM = '(0.007813-0.038936]'
|   |   |   |   |   |   |   SentimentLM = '(-inf--0.058227]': SECTION2 (0.0)
|   |   |   |   |   |   |   SentimentLM = '(-0.058227--0.019705]'
|   |   |   |   |   |   |   |   PositivityGI = '(-inf-0.006757]': SECTION0 (0.0)
|   |   |   |   |   |   |   |   PositivityGI = '(0.006757-0.177149]': SECTION2 (4.0/2.0)
|   |   |   |   |   |   |   |   PositivityGI = '(0.177149-0.255111]': SECTION0 (3.0/1.0)
|   |   |   |   |   |   |   |   PositivityGI = '(0.255111-inf)': SECTION0 (0.0)
|   |   |   |   |   |   |   SentimentLM = '(-0.019705--0.001216]': SECTION3 (1.0)
|   |   |   |   |   |   |   SentimentLM = '(-0.001216-0.071009]'
|   |   |   |   |   |   |   |   NegativityGI = '(-inf-0.003572]': SECTION2 (0.0)
|   |   |   |   |   |   |   |   NegativityGI = '(0.003572-0.058292]': SECTION0 (5.0/2.0)
|   |   |   |   |   |   |   |   NegativityGI = '(0.058292-0.119859]': SECTION2 (6.0/2.0)
|   |   |   |   |   |   |   |   NegativityGI = '(0.119859-0.264429]': SECTION2 (1.0)
|   |   |   |   |   |   |   |   NegativityGI = '(0.264429-inf)': SECTION2 (0.0)
|   |   |   |   |   |   |   SentimentLM = '(0.071009-inf)': SECTION2 (0.0)
|   |   |   |   |   |   NegativityLM = '(0.038936-0.071218]': SECTION1 (38.0/19.0)
|   |   |   |   |   |   NegativityLM = '(0.071218-inf)'
|   |   |   |   |   |   |   SentimentGI = '(-inf--0.060424]': SECTION0 (1.0)
|   |   |   |   |   |   |   SentimentGI = '(-0.060424--0.001873]': SECTION2 (2.0)
|   |   |   |   |   |   |   SentimentGI = '(-0.001873-0.006957]': SECTION1 (1.0)
|   |   |   |   |   |   |   SentimentGI = '(0.006957-0.142435]'
|   |   |   |   |   |   |   |   PositivityGI = '(-inf-0.006757]': SECTION0 (0.0)
|   |   |   |   |   |   |   |   PositivityGI = '(0.006757-0.177149]'
|   |   |   |   |   |   |   |   |   NegativityGI = '(-inf-0.003572]': SECTION0 (0.0)
|   |   |   |   |   |   |   |   |   NegativityGI = '(0.003572-0.058292]': SECTION1 (3.0/1.0)
|   |   |   |   |   |   |   |   |   NegativityGI = '(0.058292-0.119859]': SECTION0 (6.0/2.0)
|   |   |   |   |   |   |   |   |   NegativityGI = '(0.119859-0.264429]': SECTION2 (1.0)
|   |   |   |   |   |   |   |   |   NegativityGI = '(0.264429-inf)': SECTION0 (0.0)
|   |   |   |   |   |   |   |   PositivityGI = '(0.177149-0.255111]': SECTION3 (2.0/1.0)
|   |   |   |   |   |   |   |   PositivityGI = '(0.255111-inf)': SECTION0 (0.0)
|   |   |   |   |   |   |   SentimentGI = '(0.142435-0.219848]': SECTION0 (4.0/1.0)
|   |   |   |   |   |   |   SentimentGI = '(0.219848-inf)': SECTION0 (0.0)
|   |   |   |   |   RatioUncertaintyLM = '(0.003559-0.010076]': SECTION1 (0.0)
|   |   |   |   |   RatioUncertaintyLM = '(0.010076-0.024348]'
|   |   |   |   |   |   SentimentGI = '(-inf--0.060424]': SECTION2 (1.0)
|   |   |   |   |   |   SentimentGI = '(-0.060424--0.001873]': SECTION0 (3.0/1.0)
|   |   |   |   |   |   SentimentGI = '(-0.001873-0.006957]': SECTION2 (3.0/1.0)
|   |   |   |   |   |   SentimentGI = '(0.006957-0.142435]': SECTION1 (36.0/18.0)
|   |   |   |   |   |   SentimentGI = '(0.142435-0.219848]': SECTION1 (4.0/2.0)
|   |   |   |   |   |   SentimentGI = '(0.219848-inf)': SECTION1 (0.0)
|   |   |   |   |   RatioUncertaintyLM = '(0.024348-0.068574]': SECTION1 (17.0/5.0)
|   |   |   |   |   RatioUncertaintyLM = '(0.068574-inf)': SECTION2 (1.0)
|   |   |   |   PositivityQDAP = '(0.180882-0.22173]'
|   |   |   |   |   SentimentLM = '(-inf--0.058227]': SECTION0 (8.0/3.0)
|   |   |   |   |   SentimentLM = '(-0.058227--0.019705]': SECTION1 (4.0)
|   |   |   |   |   SentimentLM = '(-0.019705--0.001216]': SECTION2 (3.0/1.0)
|   |   |   |   |   SentimentLM = '(-0.001216-0.071009]': SECTION2 (6.0/3.0)
|   |   |   |   |   SentimentLM = '(0.071009-inf)': SECTION1 (0.0)
|   |   |   |   PositivityQDAP = '(0.22173-inf)'
|   |   |   |   |   PositivityGI = '(-inf-0.006757]': SECTION2 (0.0)
|   |   |   |   |   PositivityGI = '(0.006757-0.177149]': SECTION2 (0.0)
|   |   |   |   |   PositivityGI = '(0.177149-0.255111]': SECTION0 (3.0/1.0)
|   |   |   |   |   PositivityGI = '(0.255111-inf)': SECTION2 (4.0)
|   |   |   NegativityQDAP = '(0.099618-0.2207]'
|   |   |   |   SentimentLM = '(-inf--0.058227]'
|   |   |   |   |   SentimentQDAP = '(-inf--0.04525]'
|   |   |   |   |   |   RatioUncertaintyLM = '(-inf-0.003559]': SECTION0 (10.0/3.0)
|   |   |   |   |   |   RatioUncertaintyLM = '(0.003559-0.010076]': SECTION0 (0.0)
|   |   |   |   |   |   RatioUncertaintyLM = '(0.010076-0.024348]': SECTION1 (4.0/1.0)
|   |   |   |   |   |   RatioUncertaintyLM = '(0.024348-0.068574]': SECTION2 (1.0)
|   |   |   |   |   |   RatioUncertaintyLM = '(0.068574-inf)': SECTION0 (0.0)
|   |   |   |   |   SentimentQDAP = '(-0.04525--0.005439]': SECTION1 (4.0/1.0)
|   |   |   |   |   SentimentQDAP = '(-0.005439-0.002242]': SECTION0 (3.0/1.0)
|   |   |   |   |   SentimentQDAP = '(0.002242-0.024243]': SECTION0 (0.0)
|   |   |   |   |   SentimentQDAP = '(0.024243-0.071248]': SECTION0 (4.0)
|   |   |   |   |   SentimentQDAP = '(0.071248-0.181385]': SECTION1 (1.0)
|   |   |   |   |   SentimentQDAP = '(0.181385-inf)': SECTION0 (0.0)
|   |   |   |   SentimentLM = '(-0.058227--0.019705]': SECTION2 (24.0/9.0)
|   |   |   |   SentimentLM = '(-0.019705--0.001216]': SECTION2 (1.0)
|   |   |   |   SentimentLM = '(-0.001216-0.071009]'
|   |   |   |   |   NegativityLM = '(-inf-0.007813]': SECTION0 (2.0/1.0)
|   |   |   |   |   NegativityLM = '(0.007813-0.038936]': SECTION1 (2.0)
|   |   |   |   |   NegativityLM = '(0.038936-0.071218]': SECTION1 (0.0)
|   |   |   |   |   NegativityLM = '(0.071218-inf)': SECTION1 (0.0)
|   |   |   |   SentimentLM = '(0.071009-inf)': SECTION2 (0.0)
|   |   |   NegativityQDAP = '(0.2207-inf)': SECTION0 (1.0)
|   |   PositivityHE = '(0.005747-0.016195]'
|   |   |   PositivityQDAP = '(-inf-0.005155]': SECTION1 (0.0)
|   |   |   PositivityQDAP = '(0.005155-0.068598]': SECTION0 (16.0/6.0)
|   |   |   PositivityQDAP = '(0.068598-0.180882]': SECTION1 (55.0/27.0)
|   |   |   PositivityQDAP = '(0.180882-0.22173]': SECTION0 (2.0/1.0)
|   |   |   PositivityQDAP = '(0.22173-inf)': SECTION0 (2.0/1.0)
|   |   PositivityHE = '(0.016195-0.036951]'
|   |   |   PositivityQDAP = '(-inf-0.005155]': SECTION3 (2.0/1.0)
|   |   |   PositivityQDAP = '(0.005155-0.068598]'
|   |   |   |   NegativityQDAP = '(-inf-0.006297]'
|   |   |   |   |   RatioUncertaintyLM = '(-inf-0.003559]'
|   |   |   |   |   |   SentimentQDAP = '(-inf--0.04525]': SECTION1 (0.0)
|   |   |   |   |   |   SentimentQDAP = '(-0.04525--0.005439]': SECTION1 (0.0)
|   |   |   |   |   |   SentimentQDAP = '(-0.005439-0.002242]': SECTION1 (0.0)
|   |   |   |   |   |   SentimentQDAP = '(0.002242-0.024243]': SECTION3 (2.0/1.0)
|   |   |   |   |   |   SentimentQDAP = '(0.024243-0.071248]': SECTION1 (12.0/2.0)
|   |   |   |   |   |   SentimentQDAP = '(0.071248-0.181385]': SECTION1 (0.0)
|   |   |   |   |   |   SentimentQDAP = '(0.181385-inf)': SECTION1 (0.0)
|   |   |   |   |   RatioUncertaintyLM = '(0.003559-0.010076]': SECTION1 (0.0)
|   |   |   |   |   RatioUncertaintyLM = '(0.010076-0.024348]': SECTION3 (2.0)
|   |   |   |   |   RatioUncertaintyLM = '(0.024348-0.068574]': SECTION1 (0.0)
|   |   |   |   |   RatioUncertaintyLM = '(0.068574-inf)': SECTION1 (0.0)
|   |   |   |   NegativityQDAP = '(0.006297-0.0226]'
|   |   |   |   |   RatioUncertaintyLM = '(-inf-0.003559]'
|   |   |   |   |   |   NegativityGI = '(-inf-0.003572]': SECTION0 (2.0)
|   |   |   |   |   |   NegativityGI = '(0.003572-0.058292]': SECTION0 (8.0/4.0)
|   |   |   |   |   |   NegativityGI = '(0.058292-0.119859]': SECTION1 (4.0)
|   |   |   |   |   |   NegativityGI = '(0.119859-0.264429]': SECTION2 (1.0)
|   |   |   |   |   |   NegativityGI = '(0.264429-inf)': SECTION0 (0.0)
|   |   |   |   |   RatioUncertaintyLM = '(0.003559-0.010076]': SECTION0 (0.0)
|   |   |   |   |   RatioUncertaintyLM = '(0.010076-0.024348]': SECTION3 (1.0)
|   |   |   |   |   RatioUncertaintyLM = '(0.024348-0.068574]': SECTION3 (2.0)
|   |   |   |   |   RatioUncertaintyLM = '(0.068574-inf)': SECTION0 (0.0)
|   |   |   |   NegativityQDAP = '(0.0226-0.039579]': SECTION0 (11.0/4.0)
|   |   |   |   NegativityQDAP = '(0.039579-0.099618]'
|   |   |   |   |   SentimentGI = '(-inf--0.060424]': SECTION3 (3.0/1.0)
|   |   |   |   |   SentimentGI = '(-0.060424--0.001873]': SECTION0 (9.0/4.0)
|   |   |   |   |   SentimentGI = '(-0.001873-0.006957]': SECTION3 (1.0)
|   |   |   |   |   SentimentGI = '(0.006957-0.142435]'
|   |   |   |   |   |   RatioUncertaintyLM = '(-inf-0.003559]': SECTION0 (8.0/1.0)
|   |   |   |   |   |   RatioUncertaintyLM = '(0.003559-0.010076]': SECTION0 (0.0)
|   |   |   |   |   |   RatioUncertaintyLM = '(0.010076-0.024348]': SECTION1 (3.0/1.0)
|   |   |   |   |   |   RatioUncertaintyLM = '(0.024348-0.068574]': SECTION1 (2.0)
|   |   |   |   |   |   RatioUncertaintyLM = '(0.068574-inf)': SECTION0 (0.0)
|   |   |   |   |   SentimentGI = '(0.142435-0.219848]': SECTION3 (2.0)
|   |   |   |   |   SentimentGI = '(0.219848-inf)': SECTION0 (0.0)
|   |   |   |   NegativityQDAP = '(0.099618-0.2207]'
|   |   |   |   |   RatioUncertaintyLM = '(-inf-0.003559]'
|   |   |   |   |   |   SentimentGI = '(-inf--0.060424]': SECTION1 (2.0)
|   |   |   |   |   |   SentimentGI = '(-0.060424--0.001873]': SECTION0 (3.0/1.0)
|   |   |   |   |   |   SentimentGI = '(-0.001873-0.006957]': SECTION0 (0.0)
|   |   |   |   |   |   SentimentGI = '(0.006957-0.142435]': SECTION0 (0.0)
|   |   |   |   |   |   SentimentGI = '(0.142435-0.219848]': SECTION0 (0.0)
|   |   |   |   |   |   SentimentGI = '(0.219848-inf)': SECTION0 (0.0)
|   |   |   |   |   RatioUncertaintyLM = '(0.003559-0.010076]': SECTION1 (0.0)
|   |   |   |   |   RatioUncertaintyLM = '(0.010076-0.024348]': SECTION1 (3.0)
|   |   |   |   |   RatioUncertaintyLM = '(0.024348-0.068574]': SECTION1 (0.0)
|   |   |   |   |   RatioUncertaintyLM = '(0.068574-inf)': SECTION1 (0.0)
|   |   |   |   NegativityQDAP = '(0.2207-inf)': SECTION0 (0.0)
|   |   |   PositivityQDAP = '(0.068598-0.180882]'
|   |   |   |   SentimentQDAP = '(-inf--0.04525]'
|   |   |   |   |   RatioUncertaintyLM = '(-inf-0.003559]': SECTION0 (6.0/2.0)
|   |   |   |   |   RatioUncertaintyLM = '(0.003559-0.010076]': SECTION0 (0.0)
|   |   |   |   |   RatioUncertaintyLM = '(0.010076-0.024348]': SECTION1 (2.0)
|   |   |   |   |   RatioUncertaintyLM = '(0.024348-0.068574]': SECTION0 (2.0/1.0)
|   |   |   |   |   RatioUncertaintyLM = '(0.068574-inf)': SECTION0 (0.0)
|   |   |   |   SentimentQDAP = '(-0.04525--0.005439]'
|   |   |   |   |   RatioUncertaintyLM = '(-inf-0.003559]'
|   |   |   |   |   |   NegativityQDAP = '(-inf-0.006297]': SECTION2 (0.0)
|   |   |   |   |   |   NegativityQDAP = '(0.006297-0.0226]': SECTION2 (0.0)
|   |   |   |   |   |   NegativityQDAP = '(0.0226-0.039579]': SECTION2 (0.0)
|   |   |   |   |   |   NegativityQDAP = '(0.039579-0.099618]': SECTION0 (3.0/1.0)
|   |   |   |   |   |   NegativityQDAP = '(0.099618-0.2207]': SECTION2 (6.0/1.0)
|   |   |   |   |   |   NegativityQDAP = '(0.2207-inf)': SECTION2 (0.0)
|   |   |   |   |   RatioUncertaintyLM = '(0.003559-0.010076]': SECTION2 (0.0)
|   |   |   |   |   RatioUncertaintyLM = '(0.010076-0.024348]': SECTION0 (1.0)
|   |   |   |   |   RatioUncertaintyLM = '(0.024348-0.068574]': SECTION0 (2.0)
|   |   |   |   |   RatioUncertaintyLM = '(0.068574-inf)': SECTION2 (0.0)
|   |   |   |   SentimentQDAP = '(-0.005439-0.002242]'
|   |   |   |   |   NegativityGI = '(-inf-0.003572]': SECTION0 (0.0)
|   |   |   |   |   NegativityGI = '(0.003572-0.058292]': SECTION0 (1.0)
|   |   |   |   |   NegativityGI = '(0.058292-0.119859]': SECTION2 (7.0/3.0)
|   |   |   |   |   NegativityGI = '(0.119859-0.264429]': SECTION0 (5.0/1.0)
|   |   |   |   |   NegativityGI = '(0.264429-inf)': SECTION0 (0.0)
|   |   |   |   SentimentQDAP = '(0.002242-0.024243]': SECTION0 (14.0/6.0)
|   |   |   |   SentimentQDAP = '(0.024243-0.071248]'
|   |   |   |   |   SentimentGI = '(-inf--0.060424]': SECTION2 (1.0)
|   |   |   |   |   SentimentGI = '(-0.060424--0.001873]': SECTION0 (1.0)
|   |   |   |   |   SentimentGI = '(-0.001873-0.006957]'
|   |   |   |   |   |   RatioUncertaintyLM = '(-inf-0.003559]': SECTION0 (7.0/2.0)
|   |   |   |   |   |   RatioUncertaintyLM = '(0.003559-0.010076]': SECTION0 (0.0)
|   |   |   |   |   |   RatioUncertaintyLM = '(0.010076-0.024348]': SECTION2 (2.0)
|   |   |   |   |   |   RatioUncertaintyLM = '(0.024348-0.068574]': SECTION1 (1.0)
|   |   |   |   |   |   RatioUncertaintyLM = '(0.068574-inf)': SECTION0 (0.0)
|   |   |   |   |   SentimentGI = '(0.006957-0.142435]'
|   |   |   |   |   |   NegativityLM = '(-inf-0.007813]'
|   |   |   |   |   |   |   NegativityGI = '(-inf-0.003572]': SECTION1 (0.0)
|   |   |   |   |   |   |   NegativityGI = '(0.003572-0.058292]': SECTION1 (7.0/2.0)
|   |   |   |   |   |   |   NegativityGI = '(0.058292-0.119859]': SECTION2 (4.0/1.0)
|   |   |   |   |   |   |   NegativityGI = '(0.119859-0.264429]': SECTION1 (0.0)
|   |   |   |   |   |   |   NegativityGI = '(0.264429-inf)': SECTION1 (0.0)
|   |   |   |   |   |   NegativityLM = '(0.007813-0.038936]': SECTION2 (15.0/9.0)
|   |   |   |   |   |   NegativityLM = '(0.038936-0.071218]': SECTION1 (10.0/5.0)
|   |   |   |   |   |   NegativityLM = '(0.071218-inf)'
|   |   |   |   |   |   |   PositivityGI = '(-inf-0.006757]': SECTION0 (0.0)
|   |   |   |   |   |   |   PositivityGI = '(0.006757-0.177149]': SECTION0 (6.0/2.0)
|   |   |   |   |   |   |   PositivityGI = '(0.177149-0.255111]': SECTION1 (6.0/3.0)
|   |   |   |   |   |   |   PositivityGI = '(0.255111-inf)': SECTION0 (0.0)
|   |   |   |   |   SentimentGI = '(0.142435-0.219848]': SECTION1 (15.0/5.0)
|   |   |   |   |   SentimentGI = '(0.219848-inf)': SECTION0 (1.0)
|   |   |   |   SentimentQDAP = '(0.071248-0.181385]': SECTION1 (149.0/59.0)
|   |   |   |   SentimentQDAP = '(0.181385-inf)': SECTION1 (0.0)
|   |   |   PositivityQDAP = '(0.180882-0.22173]'
|   |   |   |   SentimentQDAP = '(-inf--0.04525]': SECTION1 (0.0)
|   |   |   |   SentimentQDAP = '(-0.04525--0.005439]': SECTION1 (0.0)
|   |   |   |   SentimentQDAP = '(-0.005439-0.002242]': SECTION1 (0.0)
|   |   |   |   SentimentQDAP = '(0.002242-0.024243]': SECTION3 (1.0)
|   |   |   |   SentimentQDAP = '(0.024243-0.071248]': SECTION0 (2.0/1.0)
|   |   |   |   SentimentQDAP = '(0.071248-0.181385]'
|   |   |   |   |   SentimentHE = '(-inf--0.048081]': SECTION2 (0.0)
|   |   |   |   |   SentimentHE = '(-0.048081--0.016327]': SECTION2 (0.0)
|   |   |   |   |   SentimentHE = '(-0.016327--0.007326]': SECTION2 (0.0)
|   |   |   |   |   SentimentHE = '(-0.007326-0.003105]': SECTION2 (0.0)
|   |   |   |   |   SentimentHE = '(0.003105-0.017076]': SECTION1 (2.0)
|   |   |   |   |   SentimentHE = '(0.017076-0.035556]'
|   |   |   |   |   |   NegativityLM = '(-inf-0.007813]': SECTION2 (0.0)
|   |   |   |   |   |   NegativityLM = '(0.007813-0.038936]': SECTION1 (2.0/1.0)
|   |   |   |   |   |   NegativityLM = '(0.038936-0.071218]': SECTION2 (5.0)
|   |   |   |   |   |   NegativityLM = '(0.071218-inf)'
|   |   |   |   |   |   |   PositivityLM = '(-inf-0.002304]': SECTION1 (0.0)
|   |   |   |   |   |   |   PositivityLM = '(0.002304-0.023202]': SECTION2 (2.0)
|   |   |   |   |   |   |   PositivityLM = '(0.023202-0.058652]': SECTION3 (3.0/1.0)
|   |   |   |   |   |   |   PositivityLM = '(0.058652-inf)': SECTION1 (3.0)
|   |   |   |   |   SentimentHE = '(0.035556-0.075236]': SECTION3 (1.0)
|   |   |   |   |   SentimentHE = '(0.075236-inf)': SECTION2 (0.0)
|   |   |   |   SentimentQDAP = '(0.181385-inf)': SECTION1 (13.0/3.0)
|   |   |   PositivityQDAP = '(0.22173-inf)'
|   |   |   |   SentimentQDAP = '(-inf--0.04525]': SECTION1 (0.0)
|   |   |   |   SentimentQDAP = '(-0.04525--0.005439]': SECTION1 (0.0)
|   |   |   |   SentimentQDAP = '(-0.005439-0.002242]': SECTION1 (0.0)
|   |   |   |   SentimentQDAP = '(0.002242-0.024243]': SECTION1 (0.0)
|   |   |   |   SentimentQDAP = '(0.024243-0.071248]': SECTION1 (0.0)
|   |   |   |   SentimentQDAP = '(0.071248-0.181385]'
|   |   |   |   |   RatioUncertaintyLM = '(-inf-0.003559]': SECTION2 (5.0/1.0)
|   |   |   |   |   RatioUncertaintyLM = '(0.003559-0.010076]': SECTION2 (0.0)
|   |   |   |   |   RatioUncertaintyLM = '(0.010076-0.024348]': SECTION3 (3.0/1.0)
|   |   |   |   |   RatioUncertaintyLM = '(0.024348-0.068574]': SECTION2 (0.0)
|   |   |   |   |   RatioUncertaintyLM = '(0.068574-inf)': SECTION2 (0.0)
|   |   |   |   SentimentQDAP = '(0.181385-inf)': SECTION1 (17.0/4.0)
|   |   PositivityHE = '(0.036951-0.058292]'
|   |   |   SentimentGI = '(-inf--0.060424]': SECTION3 (2.0/1.0)
|   |   |   SentimentGI = '(-0.060424--0.001873]'
|   |   |   |   NegativityQDAP = '(-inf-0.006297]': SECTION3 (0.0)
|   |   |   |   NegativityQDAP = '(0.006297-0.0226]': SECTION1 (1.0)
|   |   |   |   NegativityQDAP = '(0.0226-0.039579]': SECTION3 (0.0)
|   |   |   |   NegativityQDAP = '(0.039579-0.099618]': SECTION3 (3.0)
|   |   |   |   NegativityQDAP = '(0.099618-0.2207]': SECTION0 (6.0/3.0)
|   |   |   |   NegativityQDAP = '(0.2207-inf)': SECTION3 (0.0)
|   |   |   SentimentGI = '(-0.001873-0.006957]'
|   |   |   |   SentimentQDAP = '(-inf--0.04525]': SECTION0 (0.0)
|   |   |   |   SentimentQDAP = '(-0.04525--0.005439]': SECTION1 (1.0)
|   |   |   |   SentimentQDAP = '(-0.005439-0.002242]': SECTION2 (1.0)
|   |   |   |   SentimentQDAP = '(0.002242-0.024243]': SECTION0 (3.0)
|   |   |   |   SentimentQDAP = '(0.024243-0.071248]': SECTION3 (4.0/1.0)
|   |   |   |   SentimentQDAP = '(0.071248-0.181385]': SECTION0 (0.0)
|   |   |   |   SentimentQDAP = '(0.181385-inf)': SECTION0 (0.0)
|   |   |   SentimentGI = '(0.006957-0.142435]'
|   |   |   |   PositivityQDAP = '(-inf-0.005155]': SECTION0 (1.0)
|   |   |   |   PositivityQDAP = '(0.005155-0.068598]'
|   |   |   |   |   NegativityQDAP = '(-inf-0.006297]'
|   |   |   |   |   |   NegativityGI = '(-inf-0.003572]': SECTION0 (4.0/1.0)
|   |   |   |   |   |   NegativityGI = '(0.003572-0.058292]': SECTION1 (4.0/1.0)
|   |   |   |   |   |   NegativityGI = '(0.058292-0.119859]': SECTION1 (1.0)
|   |   |   |   |   |   NegativityGI = '(0.119859-0.264429]': SECTION1 (0.0)
|   |   |   |   |   |   NegativityGI = '(0.264429-inf)': SECTION1 (0.0)
|   |   |   |   |   NegativityQDAP = '(0.006297-0.0226]': SECTION0 (4.0/1.0)
|   |   |   |   |   NegativityQDAP = '(0.0226-0.039579]': SECTION3 (3.0)
|   |   |   |   |   NegativityQDAP = '(0.039579-0.099618]': SECTION1 (2.0/1.0)
|   |   |   |   |   NegativityQDAP = '(0.099618-0.2207]': SECTION1 (0.0)
|   |   |   |   |   NegativityQDAP = '(0.2207-inf)': SECTION1 (0.0)
|   |   |   |   PositivityQDAP = '(0.068598-0.180882]'
|   |   |   |   |   RatioUncertaintyLM = '(-inf-0.003559]'
|   |   |   |   |   |   SentimentQDAP = '(-inf--0.04525]': SECTION1 (0.0)
|   |   |   |   |   |   SentimentQDAP = '(-0.04525--0.005439]': SECTION1 (0.0)
|   |   |   |   |   |   SentimentQDAP = '(-0.005439-0.002242]': SECTION0 (2.0)
|   |   |   |   |   |   SentimentQDAP = '(0.002242-0.024243]': SECTION1 (0.0)
|   |   |   |   |   |   SentimentQDAP = '(0.024243-0.071248]': SECTION3 (14.0/9.0)
|   |   |   |   |   |   SentimentQDAP = '(0.071248-0.181385]': SECTION1 (15.0/6.0)
|   |   |   |   |   |   SentimentQDAP = '(0.181385-inf)': SECTION1 (0.0)
|   |   |   |   |   RatioUncertaintyLM = '(0.003559-0.010076]': SECTION1 (0.0)
|   |   |   |   |   RatioUncertaintyLM = '(0.010076-0.024348]'
|   |   |   |   |   |   SentimentQDAP = '(-inf--0.04525]': SECTION3 (0.0)
|   |   |   |   |   |   SentimentQDAP = '(-0.04525--0.005439]': SECTION3 (0.0)
|   |   |   |   |   |   SentimentQDAP = '(-0.005439-0.002242]': SECTION1 (2.0)
|   |   |   |   |   |   SentimentQDAP = '(0.002242-0.024243]': SECTION3 (0.0)
|   |   |   |   |   |   SentimentQDAP = '(0.024243-0.071248]': SECTION3 (5.0/2.0)
|   |   |   |   |   |   SentimentQDAP = '(0.071248-0.181385]': SECTION3 (1.0)
|   |   |   |   |   |   SentimentQDAP = '(0.181385-inf)': SECTION3 (0.0)
|   |   |   |   |   RatioUncertaintyLM = '(0.024348-0.068574]': SECTION3 (2.0/1.0)
|   |   |   |   |   RatioUncertaintyLM = '(0.068574-inf)': SECTION2 (1.0)
|   |   |   |   PositivityQDAP = '(0.180882-0.22173]': SECTION2 (3.0/1.0)
|   |   |   |   PositivityQDAP = '(0.22173-inf)': SECTION1 (0.0)
|   |   |   SentimentGI = '(0.142435-0.219848]': SECTION1 (26.0/11.0)
|   |   |   SentimentGI = '(0.219848-inf)': SECTION1 (12.0/2.0)
|   |   PositivityHE = '(0.058292-inf)': SECTION3 (77.0/38.0)
|   WordCount = '(67.5-140.5]'
|   |   NegativityQDAP = '(-inf-0.006297]'
|   |   |   SentimentQDAP = '(-inf--0.04525]': SECTION1 (0.0)
|   |   |   SentimentQDAP = '(-0.04525--0.005439]': SECTION1 (0.0)
|   |   |   SentimentQDAP = '(-0.005439-0.002242]': SECTION1 (0.0)
|   |   |   SentimentQDAP = '(0.002242-0.024243]': SECTION0 (3.0)
|   |   |   SentimentQDAP = '(0.024243-0.071248]'
|   |   |   |   NegativityLM = '(-inf-0.007813]': SECTION1 (11.0/3.0)
|   |   |   |   NegativityLM = '(0.007813-0.038936]'
|   |   |   |   |   NegativityGI = '(-inf-0.003572]': SECTION0 (2.0/1.0)
|   |   |   |   |   NegativityGI = '(0.003572-0.058292]'
|   |   |   |   |   |   PositivityLM = '(-inf-0.002304]': SECTION0 (2.0)
|   |   |   |   |   |   PositivityLM = '(0.002304-0.023202]': SECTION0 (5.0/2.0)
|   |   |   |   |   |   PositivityLM = '(0.023202-0.058652]': SECTION1 (2.0)
|   |   |   |   |   |   PositivityLM = '(0.058652-inf)': SECTION0 (0.0)
|   |   |   |   |   NegativityGI = '(0.058292-0.119859]': SECTION3 (3.0)
|   |   |   |   |   NegativityGI = '(0.119859-0.264429]': SECTION0 (0.0)
|   |   |   |   |   NegativityGI = '(0.264429-inf)': SECTION0 (0.0)
|   |   |   |   NegativityLM = '(0.038936-0.071218]': SECTION0 (5.0/1.0)
|   |   |   |   NegativityLM = '(0.071218-inf)': SECTION0 (2.0)
|   |   |   SentimentQDAP = '(0.071248-0.181385]': SECTION1 (82.0/30.0)
|   |   |   SentimentQDAP = '(0.181385-inf)': SECTION1 (12.0/3.0)
|   |   NegativityQDAP = '(0.006297-0.0226]'
|   |   |   NegativityGI = '(-inf-0.003572]'
|   |   |   |   SentimentLM = '(-inf--0.058227]': SECTION1 (0.0)
|   |   |   |   SentimentLM = '(-0.058227--0.019705]': SECTION1 (0.0)
|   |   |   |   SentimentLM = '(-0.019705--0.001216]': SECTION1 (2.0)
|   |   |   |   SentimentLM = '(-0.001216-0.071009]': SECTION3 (2.0/1.0)
|   |   |   |   SentimentLM = '(0.071009-inf)': SECTION1 (0.0)
|   |   |   NegativityGI = '(0.003572-0.058292]'
|   |   |   |   NegativityLM = '(-inf-0.007813]'
|   |   |   |   |   SentimentGI = '(-inf--0.060424]': SECTION1 (0.0)
|   |   |   |   |   SentimentGI = '(-0.060424--0.001873]': SECTION1 (0.0)
|   |   |   |   |   SentimentGI = '(-0.001873-0.006957]': SECTION0 (1.0)
|   |   |   |   |   SentimentGI = '(0.006957-0.142435]': SECTION1 (20.0/6.0)
|   |   |   |   |   SentimentGI = '(0.142435-0.219848]'
|   |   |   |   |   |   SentimentQDAP = '(-inf--0.04525]': SECTION3 (0.0)
|   |   |   |   |   |   SentimentQDAP = '(-0.04525--0.005439]': SECTION3 (0.0)
|   |   |   |   |   |   SentimentQDAP = '(-0.005439-0.002242]': SECTION3 (0.0)
|   |   |   |   |   |   SentimentQDAP = '(0.002242-0.024243]': SECTION3 (0.0)
|   |   |   |   |   |   SentimentQDAP = '(0.024243-0.071248]': SECTION3 (2.0)
|   |   |   |   |   |   SentimentQDAP = '(0.071248-0.181385]': SECTION1 (4.0/1.0)
|   |   |   |   |   |   SentimentQDAP = '(0.181385-inf)': SECTION3 (0.0)
|   |   |   |   |   SentimentGI = '(0.219848-inf)': SECTION1 (0.0)
|   |   |   |   NegativityLM = '(0.007813-0.038936]'
|   |   |   |   |   SentimentGI = '(-inf--0.060424]': SECTION1 (0.0)
|   |   |   |   |   SentimentGI = '(-0.060424--0.001873]': SECTION1 (0.0)
|   |   |   |   |   SentimentGI = '(-0.001873-0.006957]': SECTION1 (0.0)
|   |   |   |   |   SentimentGI = '(0.006957-0.142435]'
|   |   |   |   |   |   SentimentHE = '(-inf--0.048081]': SECTION0 (0.0)
|   |   |   |   |   |   SentimentHE = '(-0.048081--0.016327]': SECTION0 (0.0)
|   |   |   |   |   |   SentimentHE = '(-0.016327--0.007326]': SECTION0 (0.0)
|   |   |   |   |   |   SentimentHE = '(-0.007326-0.003105]': SECTION1 (28.0/15.0)
|   |   |   |   |   |   SentimentHE = '(0.003105-0.017076]'
|   |   |   |   |   |   |   RatioUncertaintyLM = '(-inf-0.003559]': SECTION0 (12.0/2.0)
|   |   |   |   |   |   |   RatioUncertaintyLM = '(0.003559-0.010076]': SECTION1 (2.0)
|   |   |   |   |   |   |   RatioUncertaintyLM = '(0.010076-0.024348]': SECTION1 (3.0/1.0)
|   |   |   |   |   |   |   RatioUncertaintyLM = '(0.024348-0.068574]': SECTION1 (1.0)
|   |   |   |   |   |   |   RatioUncertaintyLM = '(0.068574-inf)': SECTION0 (0.0)
|   |   |   |   |   |   SentimentHE = '(0.017076-0.035556]': SECTION0 (18.0/5.0)
|   |   |   |   |   |   SentimentHE = '(0.035556-0.075236]': SECTION3 (5.0/2.0)
|   |   |   |   |   |   SentimentHE = '(0.075236-inf)': SECTION0 (0.0)
|   |   |   |   |   SentimentGI = '(0.142435-0.219848]': SECTION1 (38.0/12.0)
|   |   |   |   |   SentimentGI = '(0.219848-inf)': SECTION1 (5.0)
|   |   |   |   NegativityLM = '(0.038936-0.071218]': SECTION1 (33.0/14.0)
|   |   |   |   NegativityLM = '(0.071218-inf)'
|   |   |   |   |   PositivityLM = '(-inf-0.002304]': SECTION1 (1.0)
|   |   |   |   |   PositivityLM = '(0.002304-0.023202]': SECTION0 (4.0/1.0)
|   |   |   |   |   PositivityLM = '(0.023202-0.058652]': SECTION1 (2.0/1.0)
|   |   |   |   |   PositivityLM = '(0.058652-inf)': SECTION0 (0.0)
|   |   |   NegativityGI = '(0.058292-0.119859]': SECTION1 (77.0/23.0)
|   |   |   NegativityGI = '(0.119859-0.264429]': SECTION1 (3.0)
|   |   |   NegativityGI = '(0.264429-inf)': SECTION1 (0.0)
|   |   NegativityQDAP = '(0.0226-0.039579]'
|   |   |   PositivityQDAP = '(-inf-0.005155]': SECTION3 (1.0)
|   |   |   PositivityQDAP = '(0.005155-0.068598]'
|   |   |   |   PositivityGI = '(-inf-0.006757]': SECTION0 (0.0)
|   |   |   |   PositivityGI = '(0.006757-0.177149]'
|   |   |   |   |   SentimentGI = '(-inf--0.060424]': SECTION0 (0.0)
|   |   |   |   |   SentimentGI = '(-0.060424--0.001873]': SECTION1 (2.0)
|   |   |   |   |   SentimentGI = '(-0.001873-0.006957]': SECTION1 (4.0/2.0)
|   |   |   |   |   SentimentGI = '(0.006957-0.142435]': SECTION0 (26.0/8.0)
|   |   |   |   |   SentimentGI = '(0.142435-0.219848]': SECTION0 (0.0)
|   |   |   |   |   SentimentGI = '(0.219848-inf)': SECTION0 (0.0)
|   |   |   |   PositivityGI = '(0.177149-0.255111]': SECTION3 (6.0/3.0)
|   |   |   |   PositivityGI = '(0.255111-inf)': SECTION1 (1.0)
|   |   |   PositivityQDAP = '(0.068598-0.180882]'
|   |   |   |   SentimentGI = '(-inf--0.060424]': SECTION1 (0.0)
|   |   |   |   SentimentGI = '(-0.060424--0.001873]': SECTION3 (1.0)
|   |   |   |   SentimentGI = '(-0.001873-0.006957]': SECTION3 (3.0/2.0)
|   |   |   |   SentimentGI = '(0.006957-0.142435]'
|   |   |   |   |   NegativityLM = '(-inf-0.007813]'
|   |   |   |   |   |   RatioUncertaintyLM = '(-inf-0.003559]': SECTION2 (8.0/4.0)
|   |   |   |   |   |   RatioUncertaintyLM = '(0.003559-0.010076]': SECTION0 (0.0)
|   |   |   |   |   |   RatioUncertaintyLM = '(0.010076-0.024348]': SECTION0 (4.0/1.0)
|   |   |   |   |   |   RatioUncertaintyLM = '(0.024348-0.068574]': SECTION1 (2.0)
|   |   |   |   |   |   RatioUncertaintyLM = '(0.068574-inf)': SECTION0 (0.0)
|   |   |   |   |   NegativityLM = '(0.007813-0.038936]'
|   |   |   |   |   |   RatioUncertaintyLM = '(-inf-0.003559]'
|   |   |   |   |   |   |   PositivityHE = '(-inf-0.005747]'
|   |   |   |   |   |   |   |   PositivityLM = '(-inf-0.002304]': SECTION1 (5.0/2.0)
|   |   |   |   |   |   |   |   PositivityLM = '(0.002304-0.023202]': SECTION1 (3.0/1.0)
|   |   |   |   |   |   |   |   PositivityLM = '(0.023202-0.058652]': SECTION0 (2.0)
|   |   |   |   |   |   |   |   PositivityLM = '(0.058652-inf)': SECTION1 (0.0)
|   |   |   |   |   |   |   PositivityHE = '(0.005747-0.016195]'
|   |   |   |   |   |   |   |   SentimentQDAP = '(-inf--0.04525]': SECTION0 (0.0)
|   |   |   |   |   |   |   |   SentimentQDAP = '(-0.04525--0.005439]': SECTION0 (0.0)
|   |   |   |   |   |   |   |   SentimentQDAP = '(-0.005439-0.002242]': SECTION0 (0.0)
|   |   |   |   |   |   |   |   SentimentQDAP = '(0.002242-0.024243]': SECTION0 (0.0)
|   |   |   |   |   |   |   |   SentimentQDAP = '(0.024243-0.071248]': SECTION0 (7.0/3.0)
|   |   |   |   |   |   |   |   SentimentQDAP = '(0.071248-0.181385]': SECTION2 (4.0/2.0)
|   |   |   |   |   |   |   |   SentimentQDAP = '(0.181385-inf)': SECTION0 (0.0)
|   |   |   |   |   |   |   PositivityHE = '(0.016195-0.036951]'
|   |   |   |   |   |   |   |   NegativityGI = '(-inf-0.003572]': SECTION0 (0.0)
|   |   |   |   |   |   |   |   NegativityGI = '(0.003572-0.058292]': SECTION1 (3.0/1.0)
|   |   |   |   |   |   |   |   NegativityGI = '(0.058292-0.119859]': SECTION0 (3.0)
|   |   |   |   |   |   |   |   NegativityGI = '(0.119859-0.264429]': SECTION1 (1.0)
|   |   |   |   |   |   |   |   NegativityGI = '(0.264429-inf)': SECTION0 (0.0)
|   |   |   |   |   |   |   PositivityHE = '(0.036951-0.058292]': SECTION0 (2.0/1.0)
|   |   |   |   |   |   |   PositivityHE = '(0.058292-inf)': SECTION2 (1.0)
|   |   |   |   |   |   RatioUncertaintyLM = '(0.003559-0.010076]'
|   |   |   |   |   |   |   PositivityGI = '(-inf-0.006757]': SECTION0 (0.0)
|   |   |   |   |   |   |   PositivityGI = '(0.006757-0.177149]': SECTION0 (10.0/3.0)
|   |   |   |   |   |   |   PositivityGI = '(0.177149-0.255111]': SECTION1 (4.0/1.0)
|   |   |   |   |   |   |   PositivityGI = '(0.255111-inf)': SECTION0 (0.0)
|   |   |   |   |   |   RatioUncertaintyLM = '(0.010076-0.024348]': SECTION1 (28.0/16.0)
|   |   |   |   |   |   RatioUncertaintyLM = '(0.024348-0.068574]'
|   |   |   |   |   |   |   SentimentQDAP = '(-inf--0.04525]': SECTION1 (0.0)
|   |   |   |   |   |   |   SentimentQDAP = '(-0.04525--0.005439]': SECTION1 (0.0)
|   |   |   |   |   |   |   SentimentQDAP = '(-0.005439-0.002242]': SECTION1 (0.0)
|   |   |   |   |   |   |   SentimentQDAP = '(0.002242-0.024243]': SECTION1 (0.0)
|   |   |   |   |   |   |   SentimentQDAP = '(0.024243-0.071248]': SECTION0 (4.0/1.0)
|   |   |   |   |   |   |   SentimentQDAP = '(0.071248-0.181385]'
|   |   |   |   |   |   |   |   PositivityLM = '(-inf-0.002304]': SECTION1 (2.0)
|   |   |   |   |   |   |   |   PositivityLM = '(0.002304-0.023202]': SECTION1 (1.0)
|   |   |   |   |   |   |   |   PositivityLM = '(0.023202-0.058652]': SECTION3 (2.0)
|   |   |   |   |   |   |   |   PositivityLM = '(0.058652-inf)': SECTION1 (0.0)
|   |   |   |   |   |   |   SentimentQDAP = '(0.181385-inf)': SECTION1 (0.0)
|   |   |   |   |   |   RatioUncertaintyLM = '(0.068574-inf)': SECTION1 (0.0)
|   |   |   |   |   NegativityLM = '(0.038936-0.071218]'
|   |   |   |   |   |   SentimentHE = '(-inf--0.048081]': SECTION0 (0.0)
|   |   |   |   |   |   SentimentHE = '(-0.048081--0.016327]': SECTION0 (0.0)
|   |   |   |   |   |   SentimentHE = '(-0.016327--0.007326]': SECTION0 (0.0)
|   |   |   |   |   |   SentimentHE = '(-0.007326-0.003105]'
|   |   |   |   |   |   |   NegativityGI = '(-inf-0.003572]': SECTION0 (0.0)
|   |   |   |   |   |   |   NegativityGI = '(0.003572-0.058292]': SECTION0 (10.0/3.0)
|   |   |   |   |   |   |   NegativityGI = '(0.058292-0.119859]': SECTION1 (9.0/2.0)
|   |   |   |   |   |   |   NegativityGI = '(0.119859-0.264429]': SECTION0 (0.0)
|   |   |   |   |   |   |   NegativityGI = '(0.264429-inf)': SECTION0 (0.0)
|   |   |   |   |   |   SentimentHE = '(0.003105-0.017076]'
|   |   |   |   |   |   |   NegativityGI = '(-inf-0.003572]': SECTION1 (0.0)
|   |   |   |   |   |   |   NegativityGI = '(0.003572-0.058292]': SECTION0 (7.0/3.0)
|   |   |   |   |   |   |   NegativityGI = '(0.058292-0.119859]': SECTION1 (6.0/2.0)
|   |   |   |   |   |   |   NegativityGI = '(0.119859-0.264429]': SECTION3 (1.0)
|   |   |   |   |   |   |   NegativityGI = '(0.264429-inf)': SECTION1 (0.0)
|   |   |   |   |   |   SentimentHE = '(0.017076-0.035556]': SECTION0 (9.0/3.0)
|   |   |   |   |   |   SentimentHE = '(0.035556-0.075236]': SECTION3 (8.0/3.0)
|   |   |   |   |   |   SentimentHE = '(0.075236-inf)': SECTION0 (0.0)
|   |   |   |   |   NegativityLM = '(0.071218-inf)'
|   |   |   |   |   |   PositivityGI = '(-inf-0.006757]': SECTION3 (0.0)
|   |   |   |   |   |   PositivityGI = '(0.006757-0.177149]': SECTION3 (4.0/1.0)
|   |   |   |   |   |   PositivityGI = '(0.177149-0.255111]': SECTION1 (3.0/1.0)
|   |   |   |   |   |   PositivityGI = '(0.255111-inf)': SECTION3 (0.0)
|   |   |   |   SentimentGI = '(0.142435-0.219848]': SECTION1 (43.0/21.0)
|   |   |   |   SentimentGI = '(0.219848-inf)': SECTION1 (3.0/1.0)
|   |   |   PositivityQDAP = '(0.180882-0.22173]': SECTION1 (17.0/6.0)
|   |   |   PositivityQDAP = '(0.22173-inf)': SECTION1 (6.0/2.0)
|   |   NegativityQDAP = '(0.039579-0.099618]'
|   |   |   NegativityLM = '(-inf-0.007813]'
|   |   |   |   RatioUncertaintyLM = '(-inf-0.003559]': SECTION1 (3.0/1.0)
|   |   |   |   RatioUncertaintyLM = '(0.003559-0.010076]': SECTION0 (3.0/1.0)
|   |   |   |   RatioUncertaintyLM = '(0.010076-0.024348]': SECTION1 (4.0/2.0)
|   |   |   |   RatioUncertaintyLM = '(0.024348-0.068574]': SECTION2 (4.0/1.0)
|   |   |   |   RatioUncertaintyLM = '(0.068574-inf)': SECTION1 (0.0)
|   |   |   NegativityLM = '(0.007813-0.038936]'
|   |   |   |   PositivityQDAP = '(-inf-0.005155]': SECTION0 (0.0)
|   |   |   |   PositivityQDAP = '(0.005155-0.068598]': SECTION0 (24.0/7.0)
|   |   |   |   PositivityQDAP = '(0.068598-0.180882]'
|   |   |   |   |   SentimentGI = '(-inf--0.060424]': SECTION0 (0.0)
|   |   |   |   |   SentimentGI = '(-0.060424--0.001873]'
|   |   |   |   |   |   PositivityLM = '(-inf-0.002304]': SECTION3 (2.0/1.0)
|   |   |   |   |   |   PositivityLM = '(0.002304-0.023202]': SECTION0 (2.0)
|   |   |   |   |   |   PositivityLM = '(0.023202-0.058652]': SECTION1 (2.0/1.0)
|   |   |   |   |   |   PositivityLM = '(0.058652-inf)': SECTION0 (0.0)
|   |   |   |   |   SentimentGI = '(-0.001873-0.006957]': SECTION0 (3.0/1.0)
|   |   |   |   |   SentimentGI = '(0.006957-0.142435]'
|   |   |   |   |   |   SentimentLM = '(-inf--0.058227]': SECTION0 (0.0)
|   |   |   |   |   |   SentimentLM = '(-0.058227--0.019705]': SECTION0 (24.0/12.0)
|   |   |   |   |   |   SentimentLM = '(-0.019705--0.001216]': SECTION0 (31.0/17.0)
|   |   |   |   |   |   SentimentLM = '(-0.001216-0.071009]'
|   |   |   |   |   |   |   RatioUncertaintyLM = '(-inf-0.003559]'
|   |   |   |   |   |   |   |   PositivityGI = '(-inf-0.006757]': SECTION1 (0.0)
|   |   |   |   |   |   |   |   PositivityGI = '(0.006757-0.177149]': SECTION2 (12.0/6.0)
|   |   |   |   |   |   |   |   PositivityGI = '(0.177149-0.255111]': SECTION1 (8.0/3.0)
|   |   |   |   |   |   |   |   PositivityGI = '(0.255111-inf)': SECTION1 (0.0)
|   |   |   |   |   |   |   RatioUncertaintyLM = '(0.003559-0.010076]'
|   |   |   |   |   |   |   |   PositivityGI = '(-inf-0.006757]': SECTION2 (0.0)
|   |   |   |   |   |   |   |   PositivityGI = '(0.006757-0.177149]': SECTION0 (3.0/1.0)
|   |   |   |   |   |   |   |   PositivityGI = '(0.177149-0.255111]': SECTION2 (2.0)
|   |   |   |   |   |   |   |   PositivityGI = '(0.255111-inf)': SECTION2 (0.0)
|   |   |   |   |   |   |   RatioUncertaintyLM = '(0.010076-0.024348]'
|   |   |   |   |   |   |   |   SentimentHE = '(-inf--0.048081]': SECTION1 (0.0)
|   |   |   |   |   |   |   |   SentimentHE = '(-0.048081--0.016327]': SECTION1 (0.0)
|   |   |   |   |   |   |   |   SentimentHE = '(-0.016327--0.007326]': SECTION1 (0.0)
|   |   |   |   |   |   |   |   SentimentHE = '(-0.007326-0.003105]': SECTION1 (1.0)
|   |   |   |   |   |   |   |   SentimentHE = '(0.003105-0.017076]': SECTION2 (3.0/1.0)
|   |   |   |   |   |   |   |   SentimentHE = '(0.017076-0.035556]': SECTION0 (3.0/1.0)
|   |   |   |   |   |   |   |   SentimentHE = '(0.035556-0.075236]': SECTION2 (1.0)
|   |   |   |   |   |   |   |   SentimentHE = '(0.075236-inf)': SECTION1 (0.0)
|   |   |   |   |   |   |   RatioUncertaintyLM = '(0.024348-0.068574]'
|   |   |   |   |   |   |   |   PositivityLM = '(-inf-0.002304]': SECTION0 (0.0)
|   |   |   |   |   |   |   |   PositivityLM = '(0.002304-0.023202]': SECTION1 (3.0/1.0)
|   |   |   |   |   |   |   |   PositivityLM = '(0.023202-0.058652]': SECTION0 (6.0/3.0)
|   |   |   |   |   |   |   |   PositivityLM = '(0.058652-inf)': SECTION2 (1.0)
|   |   |   |   |   |   |   RatioUncertaintyLM = '(0.068574-inf)': SECTION3 (1.0)
|   |   |   |   |   |   SentimentLM = '(0.071009-inf)': SECTION0 (1.0)
|   |   |   |   |   SentimentGI = '(0.142435-0.219848]': SECTION1 (14.0/5.0)
|   |   |   |   |   SentimentGI = '(0.219848-inf)': SECTION0 (0.0)
|   |   |   |   PositivityQDAP = '(0.180882-0.22173]'
|   |   |   |   |   NegativityGI = '(-inf-0.003572]': SECTION0 (0.0)
|   |   |   |   |   NegativityGI = '(0.003572-0.058292]': SECTION0 (2.0)
|   |   |   |   |   NegativityGI = '(0.058292-0.119859]': SECTION2 (8.0/4.0)
|   |   |   |   |   NegativityGI = '(0.119859-0.264429]': SECTION1 (1.0)
|   |   |   |   |   NegativityGI = '(0.264429-inf)': SECTION0 (0.0)
|   |   |   |   PositivityQDAP = '(0.22173-inf)'
|   |   |   |   |   PositivityGI = '(-inf-0.006757]': SECTION0 (0.0)
|   |   |   |   |   PositivityGI = '(0.006757-0.177149]': SECTION0 (0.0)
|   |   |   |   |   PositivityGI = '(0.177149-0.255111]': SECTION0 (2.0)
|   |   |   |   |   PositivityGI = '(0.255111-inf)': SECTION1 (2.0/1.0)
|   |   |   NegativityLM = '(0.038936-0.071218]'
|   |   |   |   RatioUncertaintyLM = '(-inf-0.003559]'
|   |   |   |   |   SentimentGI = '(-inf--0.060424]': SECTION0 (0.0)
|   |   |   |   |   SentimentGI = '(-0.060424--0.001873]'
|   |   |   |   |   |   SentimentHE = '(-inf--0.048081]': SECTION0 (0.0)
|   |   |   |   |   |   SentimentHE = '(-0.048081--0.016327]': SECTION0 (0.0)
|   |   |   |   |   |   SentimentHE = '(-0.016327--0.007326]': SECTION0 (0.0)
|   |   |   |   |   |   SentimentHE = '(-0.007326-0.003105]': SECTION0 (3.0/1.0)
|   |   |   |   |   |   SentimentHE = '(0.003105-0.017076]': SECTION1 (3.0/1.0)
|   |   |   |   |   |   SentimentHE = '(0.017076-0.035556]': SECTION0 (1.0)
|   |   |   |   |   |   SentimentHE = '(0.035556-0.075236]': SECTION0 (0.0)
|   |   |   |   |   |   SentimentHE = '(0.075236-inf)': SECTION0 (0.0)
|   |   |   |   |   SentimentGI = '(-0.001873-0.006957]': SECTION1 (2.0)
|   |   |   |   |   SentimentGI = '(0.006957-0.142435]': SECTION0 (74.0/26.0)
|   |   |   |   |   SentimentGI = '(0.142435-0.219848]'
|   |   |   |   |   |   SentimentHE = '(-inf--0.048081]': SECTION1 (0.0)
|   |   |   |   |   |   SentimentHE = '(-0.048081--0.016327]': SECTION1 (0.0)
|   |   |   |   |   |   SentimentHE = '(-0.016327--0.007326]': SECTION1 (0.0)
|   |   |   |   |   |   SentimentHE = '(-0.007326-0.003105]': SECTION1 (3.0/1.0)
|   |   |   |   |   |   SentimentHE = '(0.003105-0.017076]': SECTION1 (10.0/2.0)
|   |   |   |   |   |   SentimentHE = '(0.017076-0.035556]': SECTION0 (3.0/1.0)
|   |   |   |   |   |   SentimentHE = '(0.035556-0.075236]': SECTION0 (3.0)
|   |   |   |   |   |   SentimentHE = '(0.075236-inf)': SECTION1 (1.0)
|   |   |   |   |   SentimentGI = '(0.219848-inf)'
|   |   |   |   |   |   NegativityGI = '(-inf-0.003572]': SECTION0 (0.0)
|   |   |   |   |   |   NegativityGI = '(0.003572-0.058292]': SECTION1 (2.0/1.0)
|   |   |   |   |   |   NegativityGI = '(0.058292-0.119859]': SECTION0 (2.0)
|   |   |   |   |   |   NegativityGI = '(0.119859-0.264429]': SECTION0 (0.0)
|   |   |   |   |   |   NegativityGI = '(0.264429-inf)': SECTION0 (0.0)
|   |   |   |   RatioUncertaintyLM = '(0.003559-0.010076]': SECTION0 (22.0/4.0)
|   |   |   |   RatioUncertaintyLM = '(0.010076-0.024348]'
|   |   |   |   |   SentimentHE = '(-inf--0.048081]': SECTION0 (0.0)
|   |   |   |   |   SentimentHE = '(-0.048081--0.016327]': SECTION0 (0.0)
|   |   |   |   |   SentimentHE = '(-0.016327--0.007326]': SECTION0 (0.0)
|   |   |   |   |   SentimentHE = '(-0.007326-0.003105]': SECTION0 (15.0/6.0)
|   |   |   |   |   SentimentHE = '(0.003105-0.017076]'
|   |   |   |   |   |   SentimentGI = '(-inf--0.060424]': SECTION0 (0.0)
|   |   |   |   |   |   SentimentGI = '(-0.060424--0.001873]': SECTION3 (2.0)
|   |   |   |   |   |   SentimentGI = '(-0.001873-0.006957]': SECTION0 (2.0/1.0)
|   |   |   |   |   |   SentimentGI = '(0.006957-0.142435]'
|   |   |   |   |   |   |   PositivityLM = '(-inf-0.002304]': SECTION0 (3.0/1.0)
|   |   |   |   |   |   |   PositivityLM = '(0.002304-0.023202]': SECTION1 (5.0/1.0)
|   |   |   |   |   |   |   PositivityLM = '(0.023202-0.058652]': SECTION0 (4.0/1.0)
|   |   |   |   |   |   |   PositivityLM = '(0.058652-inf)': SECTION0 (0.0)
|   |   |   |   |   |   SentimentGI = '(0.142435-0.219848]': SECTION0 (4.0/2.0)
|   |   |   |   |   |   SentimentGI = '(0.219848-inf)': SECTION0 (0.0)
|   |   |   |   |   SentimentHE = '(0.017076-0.035556]'
|   |   |   |   |   |   PositivityGI = '(-inf-0.006757]': SECTION0 (0.0)
|   |   |   |   |   |   PositivityGI = '(0.006757-0.177149]': SECTION0 (11.0)
|   |   |   |   |   |   PositivityGI = '(0.177149-0.255111]': SECTION1 (7.0/2.0)
|   |   |   |   |   |   PositivityGI = '(0.255111-inf)': SECTION0 (0.0)
|   |   |   |   |   SentimentHE = '(0.035556-0.075236]'
|   |   |   |   |   |   NegativityGI = '(-inf-0.003572]': SECTION3 (0.0)
|   |   |   |   |   |   NegativityGI = '(0.003572-0.058292]': SECTION3 (0.0)
|   |   |   |   |   |   NegativityGI = '(0.058292-0.119859]': SECTION0 (4.0/1.0)
|   |   |   |   |   |   NegativityGI = '(0.119859-0.264429]': SECTION3 (2.0)
|   |   |   |   |   |   NegativityGI = '(0.264429-inf)': SECTION3 (0.0)
|   |   |   |   |   SentimentHE = '(0.075236-inf)': SECTION3 (4.0)
|   |   |   |   RatioUncertaintyLM = '(0.024348-0.068574]'
|   |   |   |   |   SentimentGI = '(-inf--0.060424]': SECTION2 (1.0)
|   |   |   |   |   SentimentGI = '(-0.060424--0.001873]': SECTION0 (1.0)
|   |   |   |   |   SentimentGI = '(-0.001873-0.006957]': SECTION2 (1.0)
|   |   |   |   |   SentimentGI = '(0.006957-0.142435]'
|   |   |   |   |   |   PositivityHE = '(-inf-0.005747]': SECTION1 (6.0/3.0)
|   |   |   |   |   |   PositivityHE = '(0.005747-0.016195]'
|   |   |   |   |   |   |   SentimentQDAP = '(-inf--0.04525]': SECTION1 (0.0)
|   |   |   |   |   |   |   SentimentQDAP = '(-0.04525--0.005439]': SECTION1 (3.0)
|   |   |   |   |   |   |   SentimentQDAP = '(-0.005439-0.002242]': SECTION1 (0.0)
|   |   |   |   |   |   |   SentimentQDAP = '(0.002242-0.024243]': SECTION3 (1.0)
|   |   |   |   |   |   |   SentimentQDAP = '(0.024243-0.071248]'
|   |   |   |   |   |   |   |   PositivityGI = '(-inf-0.006757]': SECTION1 (0.0)
|   |   |   |   |   |   |   |   PositivityGI = '(0.006757-0.177149]': SECTION1 (2.0)
|   |   |   |   |   |   |   |   PositivityGI = '(0.177149-0.255111]': SECTION3 (2.0/1.0)
|   |   |   |   |   |   |   |   PositivityGI = '(0.255111-inf)': SECTION1 (0.0)
|   |   |   |   |   |   |   SentimentQDAP = '(0.071248-0.181385]': SECTION0 (3.0)
|   |   |   |   |   |   |   SentimentQDAP = '(0.181385-inf)': SECTION1 (0.0)
|   |   |   |   |   |   PositivityHE = '(0.016195-0.036951]'
|   |   |   |   |   |   |   PositivityGI = '(-inf-0.006757]': SECTION3 (0.0)
|   |   |   |   |   |   |   PositivityGI = '(0.006757-0.177149]': SECTION3 (3.0/1.0)
|   |   |   |   |   |   |   PositivityGI = '(0.177149-0.255111]': SECTION0 (2.0)
|   |   |   |   |   |   |   PositivityGI = '(0.255111-inf)': SECTION3 (0.0)
|   |   |   |   |   |   PositivityHE = '(0.036951-0.058292]': SECTION1 (3.0/1.0)
|   |   |   |   |   |   PositivityHE = '(0.058292-inf)': SECTION1 (0.0)
|   |   |   |   |   SentimentGI = '(0.142435-0.219848]': SECTION0 (2.0)
|   |   |   |   |   SentimentGI = '(0.219848-inf)': SECTION1 (0.0)
|   |   |   |   RatioUncertaintyLM = '(0.068574-inf)': SECTION0 (0.0)
|   |   |   NegativityLM = '(0.071218-inf)': SECTION0 (119.0/61.0)
|   |   NegativityQDAP = '(0.099618-0.2207]'
|   |   |   SentimentLM = '(-inf--0.058227]': SECTION0 (53.0/17.0)
|   |   |   SentimentLM = '(-0.058227--0.019705]': SECTION0 (38.0/16.0)
|   |   |   SentimentLM = '(-0.019705--0.001216]'
|   |   |   |   NegativityLM = '(-inf-0.007813]': SECTION2 (0.0)
|   |   |   |   NegativityLM = '(0.007813-0.038936]': SECTION2 (5.0/1.0)
|   |   |   |   NegativityLM = '(0.038936-0.071218]': SECTION3 (2.0/1.0)
|   |   |   |   NegativityLM = '(0.071218-inf)': SECTION2 (0.0)
|   |   |   SentimentLM = '(-0.001216-0.071009]'
|   |   |   |   RatioUncertaintyLM = '(-inf-0.003559]': SECTION2 (5.0/1.0)
|   |   |   |   RatioUncertaintyLM = '(0.003559-0.010076]': SECTION2 (0.0)
|   |   |   |   RatioUncertaintyLM = '(0.010076-0.024348]': SECTION1 (2.0)
|   |   |   |   RatioUncertaintyLM = '(0.024348-0.068574]': SECTION0 (1.0)
|   |   |   |   RatioUncertaintyLM = '(0.068574-inf)': SECTION2 (0.0)
|   |   |   SentimentLM = '(0.071009-inf)': SECTION0 (0.0)
|   |   NegativityQDAP = '(0.2207-inf)': SECTION1 (0.0)
|   WordCount = '(140.5-inf)'
|   |   NegativityLM = '(-inf-0.007813]'
|   |   |   SentimentQDAP = '(-inf--0.04525]': SECTION2 (1.0)
|   |   |   SentimentQDAP = '(-0.04525--0.005439]': SECTION1 (0.0)
|   |   |   SentimentQDAP = '(-0.005439-0.002242]': SECTION1 (0.0)
|   |   |   SentimentQDAP = '(0.002242-0.024243]': SECTION1 (0.0)
|   |   |   SentimentQDAP = '(0.024243-0.071248]': SECTION2 (3.0/1.0)
|   |   |   SentimentQDAP = '(0.071248-0.181385]'
|   |   |   |   NegativityQDAP = '(-inf-0.006297]': SECTION2 (1.0)
|   |   |   |   NegativityQDAP = '(0.006297-0.0226]': SECTION1 (5.0/1.0)
|   |   |   |   NegativityQDAP = '(0.0226-0.039579]': SECTION1 (3.0)
|   |   |   |   NegativityQDAP = '(0.039579-0.099618]': SECTION2 (2.0)
|   |   |   |   NegativityQDAP = '(0.099618-0.2207]': SECTION1 (0.0)
|   |   |   |   NegativityQDAP = '(0.2207-inf)': SECTION1 (0.0)
|   |   |   SentimentQDAP = '(0.181385-inf)': SECTION1 (0.0)
|   |   NegativityLM = '(0.007813-0.038936]': SECTION1 (75.0/35.0)
|   |   NegativityLM = '(0.038936-0.071218]'
|   |   |   PositivityLM = '(-inf-0.002304]'
|   |   |   |   NegativityGI = '(-inf-0.003572]': SECTION1 (0.0)
|   |   |   |   NegativityGI = '(0.003572-0.058292]': SECTION0 (2.0/1.0)
|   |   |   |   NegativityGI = '(0.058292-0.119859]': SECTION1 (2.0)
|   |   |   |   NegativityGI = '(0.119859-0.264429]': SECTION1 (0.0)
|   |   |   |   NegativityGI = '(0.264429-inf)': SECTION1 (0.0)
|   |   |   PositivityLM = '(0.002304-0.023202]': SECTION1 (28.0/10.0)
|   |   |   PositivityLM = '(0.023202-0.058652]'
|   |   |   |   NegativityQDAP = '(-inf-0.006297]': SECTION0 (0.0)
|   |   |   |   NegativityQDAP = '(0.006297-0.0226]': SECTION1 (5.0/2.0)
|   |   |   |   NegativityQDAP = '(0.0226-0.039579]'
|   |   |   |   |   SentimentGI = '(-inf--0.060424]': SECTION0 (0.0)
|   |   |   |   |   SentimentGI = '(-0.060424--0.001873]': SECTION0 (0.0)
|   |   |   |   |   SentimentGI = '(-0.001873-0.006957]': SECTION0 (0.0)
|   |   |   |   |   SentimentGI = '(0.006957-0.142435]'
|   |   |   |   |   |   NegativityGI = '(-inf-0.003572]': SECTION0 (0.0)
|   |   |   |   |   |   NegativityGI = '(0.003572-0.058292]': SECTION0 (2.0)
|   |   |   |   |   |   NegativityGI = '(0.058292-0.119859]': SECTION1 (2.0)
|   |   |   |   |   |   NegativityGI = '(0.119859-0.264429]': SECTION0 (0.0)
|   |   |   |   |   |   NegativityGI = '(0.264429-inf)': SECTION0 (0.0)
|   |   |   |   |   SentimentGI = '(0.142435-0.219848]': SECTION0 (2.0)
|   |   |   |   |   SentimentGI = '(0.219848-inf)': SECTION0 (0.0)
|   |   |   |   NegativityQDAP = '(0.039579-0.099618]': SECTION0 (13.0/2.0)
|   |   |   |   NegativityQDAP = '(0.099618-0.2207]': SECTION0 (0.0)
|   |   |   |   NegativityQDAP = '(0.2207-inf)': SECTION0 (0.0)
|   |   |   PositivityLM = '(0.058652-inf)': SECTION1 (0.0)
|   |   NegativityLM = '(0.071218-inf)': SECTION0 (14.0/5.0)
NegativityHE = '(0.001971-0.007272]'
|   PositivityGI = '(-inf-0.006757]': SECTION1 (0.0)
|   PositivityGI = '(0.006757-0.177149]'
|   |   NegativityLM = '(-inf-0.007813]': SECTION0 (2.0/1.0)
|   |   NegativityLM = '(0.007813-0.038936]'
|   |   |   NegativityQDAP = '(-inf-0.006297]': SECTION0 (0.0)
|   |   |   NegativityQDAP = '(0.006297-0.0226]': SECTION1 (7.0/2.0)
|   |   |   NegativityQDAP = '(0.0226-0.039579]'
|   |   |   |   PositivityLM = '(-inf-0.002304]': SECTION1 (0.0)
|   |   |   |   PositivityLM = '(0.002304-0.023202]': SECTION0 (5.0/2.0)
|   |   |   |   PositivityLM = '(0.023202-0.058652]': SECTION1 (5.0/1.0)
|   |   |   |   PositivityLM = '(0.058652-inf)': SECTION0 (1.0)
|   |   |   NegativityQDAP = '(0.039579-0.099618]'
|   |   |   |   PositivityHE = '(-inf-0.005747]': SECTION0 (7.0/3.0)
|   |   |   |   PositivityHE = '(0.005747-0.016195]': SECTION0 (8.0)
|   |   |   |   PositivityHE = '(0.016195-0.036951]'
|   |   |   |   |   RatioUncertaintyLM = '(-inf-0.003559]': SECTION2 (1.0)
|   |   |   |   |   RatioUncertaintyLM = '(0.003559-0.010076]': SECTION0 (5.0/1.0)
|   |   |   |   |   RatioUncertaintyLM = '(0.010076-0.024348]': SECTION1 (4.0)
|   |   |   |   |   RatioUncertaintyLM = '(0.024348-0.068574]': SECTION0 (0.0)
|   |   |   |   |   RatioUncertaintyLM = '(0.068574-inf)': SECTION0 (0.0)
|   |   |   |   PositivityHE = '(0.036951-0.058292]': SECTION3 (2.0/1.0)
|   |   |   |   PositivityHE = '(0.058292-inf)': SECTION0 (1.0)
|   |   |   NegativityQDAP = '(0.099618-0.2207]': SECTION2 (1.0)
|   |   |   NegativityQDAP = '(0.2207-inf)': SECTION0 (0.0)
|   |   NegativityLM = '(0.038936-0.071218]'
|   |   |   SentimentHE = '(-inf--0.048081]': SECTION0 (0.0)
|   |   |   SentimentHE = '(-0.048081--0.016327]': SECTION0 (0.0)
|   |   |   SentimentHE = '(-0.016327--0.007326]': SECTION0 (0.0)
|   |   |   SentimentHE = '(-0.007326-0.003105]': SECTION1 (9.0/3.0)
|   |   |   SentimentHE = '(0.003105-0.017076]': SECTION0 (19.0/7.0)
|   |   |   SentimentHE = '(0.017076-0.035556]': SECTION0 (7.0)
|   |   |   SentimentHE = '(0.035556-0.075236]': SECTION0 (0.0)
|   |   |   SentimentHE = '(0.075236-inf)': SECTION0 (0.0)
|   |   NegativityLM = '(0.071218-inf)': SECTION0 (12.0)
|   PositivityGI = '(0.177149-0.255111]': SECTION1 (57.0/17.0)
|   PositivityGI = '(0.255111-inf)': SECTION1 (7.0/1.0)
NegativityHE = '(0.007272-0.016065]'
|   PositivityHE = '(-inf-0.005747]'
|   |   PositivityGI = '(-inf-0.006757]': SECTION1 (0.0)
|   |   PositivityGI = '(0.006757-0.177149]'
|   |   |   RatioUncertaintyLM = '(-inf-0.003559]'
|   |   |   |   WordCount = '(-inf-10.5]': SECTION0 (0.0)
|   |   |   |   WordCount = '(10.5-20.5]': SECTION0 (0.0)
|   |   |   |   WordCount = '(20.5-34.5]': SECTION0 (0.0)
|   |   |   |   WordCount = '(34.5-41.5]': SECTION0 (0.0)
|   |   |   |   WordCount = '(41.5-67.5]': SECTION1 (8.0/1.0)
|   |   |   |   WordCount = '(67.5-140.5]'
|   |   |   |   |   NegativityLM = '(-inf-0.007813]': SECTION1 (4.0/1.0)
|   |   |   |   |   NegativityLM = '(0.007813-0.038936]': SECTION0 (12.0/3.0)
|   |   |   |   |   NegativityLM = '(0.038936-0.071218]'
|   |   |   |   |   |   NegativityGI = '(-inf-0.003572]': SECTION1 (0.0)
|   |   |   |   |   |   NegativityGI = '(0.003572-0.058292]': SECTION1 (2.0)
|   |   |   |   |   |   NegativityGI = '(0.058292-0.119859]'
|   |   |   |   |   |   |   SentimentQDAP = '(-inf--0.04525]': SECTION0 (1.0)
|   |   |   |   |   |   |   SentimentQDAP = '(-0.04525--0.005439]': SECTION1 (2.0)
|   |   |   |   |   |   |   SentimentQDAP = '(-0.005439-0.002242]': SECTION1 (1.0)
|   |   |   |   |   |   |   SentimentQDAP = '(0.002242-0.024243]': SECTION0 (0.0)
|   |   |   |   |   |   |   SentimentQDAP = '(0.024243-0.071248]': SECTION0 (4.0/1.0)
|   |   |   |   |   |   |   SentimentQDAP = '(0.071248-0.181385]': SECTION0 (0.0)
|   |   |   |   |   |   |   SentimentQDAP = '(0.181385-inf)': SECTION0 (0.0)
|   |   |   |   |   |   NegativityGI = '(0.119859-0.264429]': SECTION0 (1.0)
|   |   |   |   |   |   NegativityGI = '(0.264429-inf)': SECTION1 (0.0)
|   |   |   |   |   NegativityLM = '(0.071218-inf)'
|   |   |   |   |   |   SentimentQDAP = '(-inf--0.04525]': SECTION0 (5.0/1.0)
|   |   |   |   |   |   SentimentQDAP = '(-0.04525--0.005439]': SECTION1 (2.0)
|   |   |   |   |   |   SentimentQDAP = '(-0.005439-0.002242]': SECTION0 (0.0)
|   |   |   |   |   |   SentimentQDAP = '(0.002242-0.024243]': SECTION0 (0.0)
|   |   |   |   |   |   SentimentQDAP = '(0.024243-0.071248]': SECTION3 (4.0/2.0)
|   |   |   |   |   |   SentimentQDAP = '(0.071248-0.181385]': SECTION0 (1.0)
|   |   |   |   |   |   SentimentQDAP = '(0.181385-inf)': SECTION0 (0.0)
|   |   |   |   WordCount = '(140.5-inf)': SECTION0 (2.0)
|   |   |   RatioUncertaintyLM = '(0.003559-0.010076]': SECTION0 (11.0/3.0)
|   |   |   RatioUncertaintyLM = '(0.010076-0.024348]'
|   |   |   |   NegativityLM = '(-inf-0.007813]': SECTION0 (0.0)
|   |   |   |   NegativityLM = '(0.007813-0.038936]'
|   |   |   |   |   NegativityQDAP = '(-inf-0.006297]': SECTION1 (1.0)
|   |   |   |   |   NegativityQDAP = '(0.006297-0.0226]': SECTION1 (2.0)
|   |   |   |   |   NegativityQDAP = '(0.0226-0.039579]': SECTION0 (3.0/1.0)
|   |   |   |   |   NegativityQDAP = '(0.039579-0.099618]'
|   |   |   |   |   |   PositivityLM = '(-inf-0.002304]': SECTION2 (3.0)
|   |   |   |   |   |   PositivityLM = '(0.002304-0.023202]'
|   |   |   |   |   |   |   SentimentLM = '(-inf--0.058227]': SECTION0 (0.0)
|   |   |   |   |   |   |   SentimentLM = '(-0.058227--0.019705]': SECTION0 (0.0)
|   |   |   |   |   |   |   SentimentLM = '(-0.019705--0.001216]': SECTION0 (3.0/1.0)
|   |   |   |   |   |   |   SentimentLM = '(-0.001216-0.071009]': SECTION2 (2.0)
|   |   |   |   |   |   |   SentimentLM = '(0.071009-inf)': SECTION0 (0.0)
|   |   |   |   |   |   PositivityLM = '(0.023202-0.058652]': SECTION0 (2.0/1.0)
|   |   |   |   |   |   PositivityLM = '(0.058652-inf)': SECTION2 (0.0)
|   |   |   |   |   NegativityQDAP = '(0.099618-0.2207]': SECTION2 (1.0)
|   |   |   |   |   NegativityQDAP = '(0.2207-inf)': SECTION1 (0.0)
|   |   |   |   NegativityLM = '(0.038936-0.071218]': SECTION0 (13.0/2.0)
|   |   |   |   NegativityLM = '(0.071218-inf)': SECTION0 (3.0/1.0)
|   |   |   RatioUncertaintyLM = '(0.024348-0.068574]': SECTION1 (19.0/10.0)
|   |   |   RatioUncertaintyLM = '(0.068574-inf)': SECTION0 (0.0)
|   |   PositivityGI = '(0.177149-0.255111]': SECTION1 (47.0/17.0)
|   |   PositivityGI = '(0.255111-inf)': SECTION1 (12.0/3.0)
|   PositivityHE = '(0.005747-0.016195]'
|   |   SentimentGI = '(-inf--0.060424]': SECTION0 (6.0/2.0)
|   |   SentimentGI = '(-0.060424--0.001873]'
|   |   |   NegativityLM = '(-inf-0.007813]': SECTION3 (0.0)
|   |   |   NegativityLM = '(0.007813-0.038936]': SECTION3 (1.0)
|   |   |   NegativityLM = '(0.038936-0.071218]': SECTION0 (4.0/1.0)
|   |   |   NegativityLM = '(0.071218-inf)': SECTION1 (3.0/1.0)
|   |   SentimentGI = '(-0.001873-0.006957]': SECTION2 (3.0/1.0)
|   |   SentimentGI = '(0.006957-0.142435]'
|   |   |   NegativityLM = '(-inf-0.007813]': SECTION1 (4.0/1.0)
|   |   |   NegativityLM = '(0.007813-0.038936]': SECTION1 (68.0/32.0)
|   |   |   NegativityLM = '(0.038936-0.071218]'
|   |   |   |   WordCount = '(-inf-10.5]': SECTION0 (0.0)
|   |   |   |   WordCount = '(10.5-20.5]': SECTION0 (0.0)
|   |   |   |   WordCount = '(20.5-34.5]': SECTION0 (0.0)
|   |   |   |   WordCount = '(34.5-41.5]': SECTION0 (0.0)
|   |   |   |   WordCount = '(41.5-67.5]': SECTION0 (3.0)
|   |   |   |   WordCount = '(67.5-140.5]'
|   |   |   |   |   RatioUncertaintyLM = '(-inf-0.003559]': SECTION0 (15.0/4.0)
|   |   |   |   |   RatioUncertaintyLM = '(0.003559-0.010076]': SECTION1 (5.0/1.0)
|   |   |   |   |   RatioUncertaintyLM = '(0.010076-0.024348]': SECTION0 (14.0/7.0)
|   |   |   |   |   RatioUncertaintyLM = '(0.024348-0.068574]'
|   |   |   |   |   |   PositivityLM = '(-inf-0.002304]': SECTION1 (1.0)
|   |   |   |   |   |   PositivityLM = '(0.002304-0.023202]': SECTION3 (3.0/1.0)
|   |   |   |   |   |   PositivityLM = '(0.023202-0.058652]'
|   |   |   |   |   |   |   NegativityGI = '(-inf-0.003572]': SECTION1 (0.0)
|   |   |   |   |   |   |   NegativityGI = '(0.003572-0.058292]': SECTION1 (0.0)
|   |   |   |   |   |   |   NegativityGI = '(0.058292-0.119859]': SECTION0 (2.0/1.0)
|   |   |   |   |   |   |   NegativityGI = '(0.119859-0.264429]': SECTION1 (2.0)
|   |   |   |   |   |   |   NegativityGI = '(0.264429-inf)': SECTION1 (0.0)
|   |   |   |   |   |   PositivityLM = '(0.058652-inf)': SECTION1 (0.0)
|   |   |   |   |   RatioUncertaintyLM = '(0.068574-inf)': SECTION1 (1.0)
|   |   |   |   WordCount = '(140.5-inf)'
|   |   |   |   |   SentimentHE = '(-inf--0.048081]': SECTION0 (0.0)
|   |   |   |   |   SentimentHE = '(-0.048081--0.016327]': SECTION0 (0.0)
|   |   |   |   |   SentimentHE = '(-0.016327--0.007326]': SECTION0 (0.0)
|   |   |   |   |   SentimentHE = '(-0.007326-0.003105]': SECTION1 (7.0/2.0)
|   |   |   |   |   SentimentHE = '(0.003105-0.017076]': SECTION0 (3.0)
|   |   |   |   |   SentimentHE = '(0.017076-0.035556]': SECTION0 (0.0)
|   |   |   |   |   SentimentHE = '(0.035556-0.075236]': SECTION0 (0.0)
|   |   |   |   |   SentimentHE = '(0.075236-inf)': SECTION0 (0.0)
|   |   |   NegativityLM = '(0.071218-inf)'
|   |   |   |   SentimentLM = '(-inf--0.058227]': SECTION1 (15.0/5.0)
|   |   |   |   SentimentLM = '(-0.058227--0.019705]': SECTION0 (6.0/2.0)
|   |   |   |   SentimentLM = '(-0.019705--0.001216]': SECTION1 (0.0)
|   |   |   |   SentimentLM = '(-0.001216-0.071009]': SECTION1 (0.0)
|   |   |   |   SentimentLM = '(0.071009-inf)': SECTION1 (0.0)
|   |   SentimentGI = '(0.142435-0.219848]': SECTION1 (22.0/5.0)
|   |   SentimentGI = '(0.219848-inf)': SECTION1 (3.0/1.0)
|   PositivityHE = '(0.016195-0.036951]'
|   |   NegativityLM = '(-inf-0.007813]'
|   |   |   NegativityQDAP = '(-inf-0.006297]': SECTION1 (2.0)
|   |   |   NegativityQDAP = '(0.006297-0.0226]': SECTION1 (5.0)
|   |   |   NegativityQDAP = '(0.0226-0.039579]': SECTION0 (2.0)
|   |   |   NegativityQDAP = '(0.039579-0.099618]'
|   |   |   |   PositivityLM = '(-inf-0.002304]': SECTION3 (0.0)
|   |   |   |   PositivityLM = '(0.002304-0.023202]': SECTION0 (2.0/1.0)
|   |   |   |   PositivityLM = '(0.023202-0.058652]': SECTION3 (2.0)
|   |   |   |   PositivityLM = '(0.058652-inf)': SECTION3 (0.0)
|   |   |   NegativityQDAP = '(0.099618-0.2207]': SECTION1 (0.0)
|   |   |   NegativityQDAP = '(0.2207-inf)': SECTION1 (0.0)
|   |   NegativityLM = '(0.007813-0.038936]': SECTION1 (80.0/36.0)
|   |   NegativityLM = '(0.038936-0.071218]'
|   |   |   PositivityGI = '(-inf-0.006757]': SECTION0 (0.0)
|   |   |   PositivityGI = '(0.006757-0.177149]': SECTION0 (39.0/16.0)
|   |   |   PositivityGI = '(0.177149-0.255111]'
|   |   |   |   WordCount = '(-inf-10.5]': SECTION1 (0.0)
|   |   |   |   WordCount = '(10.5-20.5]': SECTION1 (0.0)
|   |   |   |   WordCount = '(20.5-34.5]': SECTION1 (0.0)
|   |   |   |   WordCount = '(34.5-41.5]': SECTION1 (0.0)
|   |   |   |   WordCount = '(41.5-67.5]': SECTION2 (1.0)
|   |   |   |   WordCount = '(67.5-140.5]': SECTION0 (19.0/11.0)
|   |   |   |   WordCount = '(140.5-inf)': SECTION1 (8.0/2.0)
|   |   |   PositivityGI = '(0.255111-inf)': SECTION1 (3.0/1.0)
|   |   NegativityLM = '(0.071218-inf)'
|   |   |   PositivityQDAP = '(-inf-0.005155]': SECTION0 (0.0)
|   |   |   PositivityQDAP = '(0.005155-0.068598]': SECTION3 (5.0/2.0)
|   |   |   PositivityQDAP = '(0.068598-0.180882]'
|   |   |   |   WordCount = '(-inf-10.5]': SECTION0 (0.0)
|   |   |   |   WordCount = '(10.5-20.5]': SECTION0 (0.0)
|   |   |   |   WordCount = '(20.5-34.5]': SECTION0 (0.0)
|   |   |   |   WordCount = '(34.5-41.5]': SECTION0 (0.0)
|   |   |   |   WordCount = '(41.5-67.5]': SECTION0 (3.0/2.0)
|   |   |   |   WordCount = '(67.5-140.5]'
|   |   |   |   |   PositivityGI = '(-inf-0.006757]': SECTION0 (0.0)
|   |   |   |   |   PositivityGI = '(0.006757-0.177149]': SECTION0 (17.0/7.0)
|   |   |   |   |   PositivityGI = '(0.177149-0.255111]'
|   |   |   |   |   |   NegativityGI = '(-inf-0.003572]': SECTION1 (0.0)
|   |   |   |   |   |   NegativityGI = '(0.003572-0.058292]': SECTION1 (1.0)
|   |   |   |   |   |   NegativityGI = '(0.058292-0.119859]': SECTION3 (9.0/4.0)
|   |   |   |   |   |   NegativityGI = '(0.119859-0.264429]': SECTION1 (4.0/1.0)
|   |   |   |   |   |   NegativityGI = '(0.264429-inf)': SECTION1 (0.0)
|   |   |   |   |   PositivityGI = '(0.255111-inf)': SECTION0 (3.0/1.0)
|   |   |   |   WordCount = '(140.5-inf)': SECTION3 (2.0/1.0)
|   |   |   PositivityQDAP = '(0.180882-0.22173]': SECTION0 (2.0)
|   |   |   PositivityQDAP = '(0.22173-inf)': SECTION2 (1.0)
|   PositivityHE = '(0.036951-0.058292]'
|   |   WordCount = '(-inf-10.5]': SECTION3 (0.0)
|   |   WordCount = '(10.5-20.5]': SECTION3 (0.0)
|   |   WordCount = '(20.5-34.5]': SECTION3 (0.0)
|   |   WordCount = '(34.5-41.5]': SECTION3 (0.0)
|   |   WordCount = '(41.5-67.5]'
|   |   |   NegativityQDAP = '(-inf-0.006297]': SECTION3 (0.0)
|   |   |   NegativityQDAP = '(0.006297-0.0226]': SECTION3 (0.0)
|   |   |   NegativityQDAP = '(0.0226-0.039579]': SECTION1 (3.0/1.0)
|   |   |   NegativityQDAP = '(0.039579-0.099618]': SECTION3 (3.0)
|   |   |   NegativityQDAP = '(0.099618-0.2207]': SECTION3 (0.0)
|   |   |   NegativityQDAP = '(0.2207-inf)': SECTION3 (0.0)
|   |   WordCount = '(67.5-140.5]'
|   |   |   RatioUncertaintyLM = '(-inf-0.003559]'
|   |   |   |   NegativityLM = '(-inf-0.007813]': SECTION3 (2.0/1.0)
|   |   |   |   NegativityLM = '(0.007813-0.038936]': SECTION1 (8.0/3.0)
|   |   |   |   NegativityLM = '(0.038936-0.071218]': SECTION0 (7.0/2.0)
|   |   |   |   NegativityLM = '(0.071218-inf)': SECTION3 (3.0/1.0)
|   |   |   RatioUncertaintyLM = '(0.003559-0.010076]': SECTION3 (1.0)
|   |   |   RatioUncertaintyLM = '(0.010076-0.024348]'
|   |   |   |   NegativityGI = '(-inf-0.003572]': SECTION3 (0.0)
|   |   |   |   NegativityGI = '(0.003572-0.058292]': SECTION0 (4.0/1.0)
|   |   |   |   NegativityGI = '(0.058292-0.119859]'
|   |   |   |   |   SentimentGI = '(-inf--0.060424]': SECTION3 (0.0)
|   |   |   |   |   SentimentGI = '(-0.060424--0.001873]': SECTION3 (1.0)
|   |   |   |   |   SentimentGI = '(-0.001873-0.006957]': SECTION3 (2.0)
|   |   |   |   |   SentimentGI = '(0.006957-0.142435]'
|   |   |   |   |   |   NegativityQDAP = '(-inf-0.006297]': SECTION1 (0.0)
|   |   |   |   |   |   NegativityQDAP = '(0.006297-0.0226]': SECTION1 (0.0)
|   |   |   |   |   |   NegativityQDAP = '(0.0226-0.039579]': SECTION3 (3.0/1.0)
|   |   |   |   |   |   NegativityQDAP = '(0.039579-0.099618]': SECTION1 (5.0/2.0)
|   |   |   |   |   |   NegativityQDAP = '(0.099618-0.2207]': SECTION1 (0.0)
|   |   |   |   |   |   NegativityQDAP = '(0.2207-inf)': SECTION1 (0.0)
|   |   |   |   |   SentimentGI = '(0.142435-0.219848]': SECTION3 (0.0)
|   |   |   |   |   SentimentGI = '(0.219848-inf)': SECTION3 (0.0)
|   |   |   |   NegativityGI = '(0.119859-0.264429]'
|   |   |   |   |   NegativityLM = '(-inf-0.007813]': SECTION3 (0.0)
|   |   |   |   |   NegativityLM = '(0.007813-0.038936]': SECTION3 (0.0)
|   |   |   |   |   NegativityLM = '(0.038936-0.071218]': SECTION0 (2.0/1.0)
|   |   |   |   |   NegativityLM = '(0.071218-inf)': SECTION3 (4.0/1.0)
|   |   |   |   NegativityGI = '(0.264429-inf)': SECTION3 (0.0)
|   |   |   RatioUncertaintyLM = '(0.024348-0.068574]': SECTION3 (17.0/3.0)
|   |   |   RatioUncertaintyLM = '(0.068574-inf)': SECTION3 (0.0)
|   |   WordCount = '(140.5-inf)': SECTION0 (2.0)
|   PositivityHE = '(0.058292-inf)'
|   |   PositivityGI = '(-inf-0.006757]': SECTION3 (0.0)
|   |   PositivityGI = '(0.006757-0.177149]': SECTION3 (23.0/3.0)
|   |   PositivityGI = '(0.177149-0.255111]'
|   |   |   NegativityLM = '(-inf-0.007813]': SECTION0 (0.0)
|   |   |   NegativityLM = '(0.007813-0.038936]': SECTION3 (3.0/1.0)
|   |   |   NegativityLM = '(0.038936-0.071218]': SECTION0 (1.0)
|   |   |   NegativityLM = '(0.071218-inf)': SECTION0 (2.0)
|   |   PositivityGI = '(0.255111-inf)': SECTION1 (3.0)
NegativityHE = '(0.016065-0.028778]'
|   PositivityHE = '(-inf-0.005747]'
|   |   PositivityQDAP = '(-inf-0.005155]': SECTION1 (7.0/2.0)
|   |   PositivityQDAP = '(0.005155-0.068598]'
|   |   |   NegativityQDAP = '(-inf-0.006297]': SECTION1 (7.0/1.0)
|   |   |   NegativityQDAP = '(0.006297-0.0226]': SECTION1 (6.0/1.0)
|   |   |   NegativityQDAP = '(0.0226-0.039579]': SECTION3 (12.0/5.0)
|   |   |   NegativityQDAP = '(0.039579-0.099618]'
|   |   |   |   SentimentGI = '(-inf--0.060424]': SECTION2 (2.0)
|   |   |   |   SentimentGI = '(-0.060424--0.001873]'
|   |   |   |   |   WordCount = '(-inf-10.5]': SECTION2 (0.0)
|   |   |   |   |   WordCount = '(10.5-20.5]': SECTION2 (0.0)
|   |   |   |   |   WordCount = '(20.5-34.5]': SECTION2 (0.0)
|   |   |   |   |   WordCount = '(34.5-41.5]': SECTION3 (1.0)
|   |   |   |   |   WordCount = '(41.5-67.5]': SECTION2 (4.0/1.0)
|   |   |   |   |   WordCount = '(67.5-140.5]': SECTION0 (2.0)
|   |   |   |   |   WordCount = '(140.5-inf)': SECTION2 (0.0)
|   |   |   |   SentimentGI = '(-0.001873-0.006957]': SECTION3 (2.0)
|   |   |   |   SentimentGI = '(0.006957-0.142435]'
|   |   |   |   |   SentimentLM = '(-inf--0.058227]': SECTION3 (5.0/2.0)
|   |   |   |   |   SentimentLM = '(-0.058227--0.019705]': SECTION2 (5.0/2.0)
|   |   |   |   |   SentimentLM = '(-0.019705--0.001216]': SECTION1 (3.0/1.0)
|   |   |   |   |   SentimentLM = '(-0.001216-0.071009]': SECTION1 (0.0)
|   |   |   |   |   SentimentLM = '(0.071009-inf)': SECTION1 (0.0)
|   |   |   |   SentimentGI = '(0.142435-0.219848]': SECTION3 (1.0)
|   |   |   |   SentimentGI = '(0.219848-inf)': SECTION3 (0.0)
|   |   |   NegativityQDAP = '(0.099618-0.2207]'
|   |   |   |   RatioUncertaintyLM = '(-inf-0.003559]': SECTION1 (4.0/2.0)
|   |   |   |   RatioUncertaintyLM = '(0.003559-0.010076]': SECTION2 (0.0)
|   |   |   |   RatioUncertaintyLM = '(0.010076-0.024348]': SECTION3 (2.0/1.0)
|   |   |   |   RatioUncertaintyLM = '(0.024348-0.068574]': SECTION2 (3.0/1.0)
|   |   |   |   RatioUncertaintyLM = '(0.068574-inf)': SECTION2 (0.0)
|   |   |   NegativityQDAP = '(0.2207-inf)': SECTION1 (0.0)
|   |   PositivityQDAP = '(0.068598-0.180882]': SECTION1 (120.0/59.0)
|   |   PositivityQDAP = '(0.180882-0.22173]'
|   |   |   SentimentLM = '(-inf--0.058227]'
|   |   |   |   PositivityLM = '(-inf-0.002304]': SECTION1 (2.0/1.0)
|   |   |   |   PositivityLM = '(0.002304-0.023202]': SECTION0 (0.0)
|   |   |   |   PositivityLM = '(0.023202-0.058652]': SECTION0 (3.0)
|   |   |   |   PositivityLM = '(0.058652-inf)': SECTION0 (0.0)
|   |   |   SentimentLM = '(-0.058227--0.019705]': SECTION1 (1.0)
|   |   |   SentimentLM = '(-0.019705--0.001216]': SECTION2 (0.0)
|   |   |   SentimentLM = '(-0.001216-0.071009]': SECTION2 (4.0/1.0)
|   |   |   SentimentLM = '(0.071009-inf)': SECTION2 (0.0)
|   |   PositivityQDAP = '(0.22173-inf)': SECTION1 (1.0)
|   PositivityHE = '(0.005747-0.016195]'
|   |   PositivityGI = '(-inf-0.006757]': SECTION1 (0.0)
|   |   PositivityGI = '(0.006757-0.177149]'
|   |   |   NegativityLM = '(-inf-0.007813]': SECTION1 (1.0)
|   |   |   NegativityLM = '(0.007813-0.038936]'
|   |   |   |   SentimentQDAP = '(-inf--0.04525]': SECTION1 (0.0)
|   |   |   |   SentimentQDAP = '(-0.04525--0.005439]': SECTION0 (2.0)
|   |   |   |   SentimentQDAP = '(-0.005439-0.002242]': SECTION1 (0.0)
|   |   |   |   SentimentQDAP = '(0.002242-0.024243]'
|   |   |   |   |   PositivityQDAP = '(-inf-0.005155]': SECTION1 (0.0)
|   |   |   |   |   PositivityQDAP = '(0.005155-0.068598]': SECTION1 (3.0)
|   |   |   |   |   PositivityQDAP = '(0.068598-0.180882]': SECTION2 (3.0/1.0)
|   |   |   |   |   PositivityQDAP = '(0.180882-0.22173]': SECTION1 (0.0)
|   |   |   |   |   PositivityQDAP = '(0.22173-inf)': SECTION1 (0.0)
|   |   |   |   SentimentQDAP = '(0.024243-0.071248]'
|   |   |   |   |   PositivityLM = '(-inf-0.002304]': SECTION0 (2.0)
|   |   |   |   |   PositivityLM = '(0.002304-0.023202]': SECTION1 (3.0/1.0)
|   |   |   |   |   PositivityLM = '(0.023202-0.058652]': SECTION0 (2.0/1.0)
|   |   |   |   |   PositivityLM = '(0.058652-inf)': SECTION0 (0.0)
|   |   |   |   SentimentQDAP = '(0.071248-0.181385]': SECTION1 (4.0)
|   |   |   |   SentimentQDAP = '(0.181385-inf)': SECTION1 (0.0)
|   |   |   NegativityLM = '(0.038936-0.071218]': SECTION0 (24.0/9.0)
|   |   |   NegativityLM = '(0.071218-inf)': SECTION3 (12.0/4.0)
|   |   PositivityGI = '(0.177149-0.255111]': SECTION1 (18.0/5.0)
|   |   PositivityGI = '(0.255111-inf)': SECTION0 (4.0/2.0)
|   PositivityHE = '(0.016195-0.036951]'
|   |   PositivityQDAP = '(-inf-0.005155]': SECTION1 (1.0)
|   |   PositivityQDAP = '(0.005155-0.068598]': SECTION3 (27.0/13.0)
|   |   PositivityQDAP = '(0.068598-0.180882]'
|   |   |   NegativityQDAP = '(-inf-0.006297]'
|   |   |   |   NegativityGI = '(-inf-0.003572]': SECTION1 (0.0)
|   |   |   |   NegativityGI = '(0.003572-0.058292]': SECTION1 (7.0/2.0)
|   |   |   |   NegativityGI = '(0.058292-0.119859]': SECTION3 (2.0)
|   |   |   |   NegativityGI = '(0.119859-0.264429]': SECTION1 (0.0)
|   |   |   |   NegativityGI = '(0.264429-inf)': SECTION1 (0.0)
|   |   |   NegativityQDAP = '(0.006297-0.0226]': SECTION1 (10.0)
|   |   |   NegativityQDAP = '(0.0226-0.039579]': SECTION1 (21.0/10.0)
|   |   |   NegativityQDAP = '(0.039579-0.099618]'
|   |   |   |   WordCount = '(-inf-10.5]': SECTION0 (0.0)
|   |   |   |   WordCount = '(10.5-20.5]': SECTION0 (0.0)
|   |   |   |   WordCount = '(20.5-34.5]': SECTION0 (0.0)
|   |   |   |   WordCount = '(34.5-41.5]'
